<?xml version='1.0' encoding='utf-8'?>
<BIF VERSION="0.3">
  <NETWORK>
    <NAME>UNTITLED</NAME>
    <VARIABLE TYPE="nature">
      <NAME>CPU</NAME>
      <OUTCOME>High</OUTCOME>
      <OUTCOME>Low</OUTCOME>
      <OUTCOME>Mid</OUTCOME>
      <OUTCOME>Very_High</OUTCOME>
      <PROPERTY />
    </VARIABLE>
    <VARIABLE TYPE="nature">
      <NAME>GPU</NAME>
      <OUTCOME>False</OUTCOME>
      <OUTCOME>True</OUTCOME>
      <PROPERTY />
    </VARIABLE>
    <VARIABLE TYPE="nature">
      <NAME>bitrate</NAME>
      <OUTCOME>10657920</OUTCOME>
      <OUTCOME>11059200</OUTCOME>
      <OUTCOME>1226880</OUTCOME>
      <OUTCOME>12297600</OUTCOME>
      <OUTCOME>14745600</OUTCOME>
      <OUTCOME>1635840</OUTCOME>
      <OUTCOME>1728000</OUTCOME>
      <OUTCOME>18432000</OUTCOME>
      <OUTCOME>2044800</OUTCOME>
      <OUTCOME>23961600</OUTCOME>
      <OUTCOME>2658240</OUTCOME>
      <OUTCOME>2764800</OUTCOME>
      <OUTCOME>27648000</OUTCOME>
      <OUTCOME>305280</OUTCOME>
      <OUTCOME>3067200</OUTCOME>
      <OUTCOME>3686400</OUTCOME>
      <OUTCOME>407040</OUTCOME>
      <OUTCOME>4608000</OUTCOME>
      <OUTCOME>4919040</OUTCOME>
      <OUTCOME>508800</OUTCOME>
      <OUTCOME>5990400</OUTCOME>
      <OUTCOME>6558720</OUTCOME>
      <OUTCOME>661440</OUTCOME>
      <OUTCOME>6912000</OUTCOME>
      <OUTCOME>763200</OUTCOME>
      <OUTCOME>8198400</OUTCOME>
      <PROPERTY />
    </VARIABLE>
    <VARIABLE TYPE="nature">
      <NAME>config</NAME>
      <OUTCOME>2C_10W</OUTCOME>
      <OUTCOME>4C_15W</OUTCOME>
      <OUTCOME>6C_20W</OUTCOME>
      <PROPERTY />
    </VARIABLE>
    <VARIABLE TYPE="nature">
      <NAME>consumption</NAME>
      <OUTCOME>5_0</OUTCOME>
      <OUTCOME>6_0</OUTCOME>
      <OUTCOME>7_0</OUTCOME>
      <OUTCOME>8_0</OUTCOME>
      <OUTCOME>9_0</OUTCOME>
      <PROPERTY />
    </VARIABLE>
    <VARIABLE TYPE="nature">
      <NAME>delay</NAME>
      <OUTCOME>11</OUTCOME>
      <OUTCOME>12</OUTCOME>
      <OUTCOME>13</OUTCOME>
      <OUTCOME>14</OUTCOME>
      <OUTCOME>15</OUTCOME>
      <OUTCOME>16</OUTCOME>
      <OUTCOME>17</OUTCOME>
      <OUTCOME>18</OUTCOME>
      <OUTCOME>19</OUTCOME>
      <OUTCOME>20</OUTCOME>
      <OUTCOME>21</OUTCOME>
      <OUTCOME>22</OUTCOME>
      <OUTCOME>23</OUTCOME>
      <OUTCOME>24</OUTCOME>
      <OUTCOME>25</OUTCOME>
      <OUTCOME>26</OUTCOME>
      <OUTCOME>27</OUTCOME>
      <OUTCOME>28</OUTCOME>
      <OUTCOME>29</OUTCOME>
      <OUTCOME>30</OUTCOME>
      <OUTCOME>31</OUTCOME>
      <OUTCOME>32</OUTCOME>
      <OUTCOME>33</OUTCOME>
      <OUTCOME>34</OUTCOME>
      <OUTCOME>35</OUTCOME>
      <OUTCOME>36</OUTCOME>
      <OUTCOME>37</OUTCOME>
      <OUTCOME>38</OUTCOME>
      <OUTCOME>39</OUTCOME>
      <OUTCOME>40</OUTCOME>
      <OUTCOME>41</OUTCOME>
      <OUTCOME>42</OUTCOME>
      <OUTCOME>43</OUTCOME>
      <OUTCOME>44</OUTCOME>
      <OUTCOME>45</OUTCOME>
      <OUTCOME>46</OUTCOME>
      <OUTCOME>47</OUTCOME>
      <OUTCOME>48</OUTCOME>
      <OUTCOME>49</OUTCOME>
      <OUTCOME>50</OUTCOME>
      <OUTCOME>51</OUTCOME>
      <OUTCOME>52</OUTCOME>
      <OUTCOME>53</OUTCOME>
      <OUTCOME>54</OUTCOME>
      <OUTCOME>55</OUTCOME>
      <OUTCOME>56</OUTCOME>
      <OUTCOME>57</OUTCOME>
      <OUTCOME>58</OUTCOME>
      <OUTCOME>59</OUTCOME>
      <OUTCOME>60</OUTCOME>
      <OUTCOME>61</OUTCOME>
      <OUTCOME>62</OUTCOME>
      <OUTCOME>63</OUTCOME>
      <OUTCOME>64</OUTCOME>
      <OUTCOME>65</OUTCOME>
      <OUTCOME>66</OUTCOME>
      <OUTCOME>67</OUTCOME>
      <OUTCOME>68</OUTCOME>
      <OUTCOME>69</OUTCOME>
      <OUTCOME>70</OUTCOME>
      <OUTCOME>71</OUTCOME>
      <OUTCOME>72</OUTCOME>
      <OUTCOME>73</OUTCOME>
      <OUTCOME>74</OUTCOME>
      <OUTCOME>75</OUTCOME>
      <OUTCOME>76</OUTCOME>
      <OUTCOME>77</OUTCOME>
      <OUTCOME>78</OUTCOME>
      <OUTCOME>79</OUTCOME>
      <OUTCOME>80</OUTCOME>
      <OUTCOME>81</OUTCOME>
      <OUTCOME>82</OUTCOME>
      <OUTCOME>83</OUTCOME>
      <OUTCOME>84</OUTCOME>
      <OUTCOME>85</OUTCOME>
      <OUTCOME>86</OUTCOME>
      <OUTCOME>87</OUTCOME>
      <OUTCOME>88</OUTCOME>
      <OUTCOME>89</OUTCOME>
      <OUTCOME>90</OUTCOME>
      <OUTCOME>91</OUTCOME>
      <OUTCOME>92</OUTCOME>
      <OUTCOME>93</OUTCOME>
      <OUTCOME>94</OUTCOME>
      <OUTCOME>95</OUTCOME>
      <OUTCOME>96</OUTCOME>
      <OUTCOME>97</OUTCOME>
      <OUTCOME>98</OUTCOME>
      <OUTCOME>99</OUTCOME>
      <OUTCOME>100</OUTCOME>
      <OUTCOME>101</OUTCOME>
      <OUTCOME>102</OUTCOME>
      <OUTCOME>103</OUTCOME>
      <OUTCOME>104</OUTCOME>
      <OUTCOME>105</OUTCOME>
      <OUTCOME>106</OUTCOME>
      <OUTCOME>107</OUTCOME>
      <OUTCOME>108</OUTCOME>
      <OUTCOME>109</OUTCOME>
      <OUTCOME>110</OUTCOME>
      <OUTCOME>111</OUTCOME>
      <OUTCOME>112</OUTCOME>
      <OUTCOME>113</OUTCOME>
      <OUTCOME>114</OUTCOME>
      <OUTCOME>115</OUTCOME>
      <OUTCOME>116</OUTCOME>
      <OUTCOME>117</OUTCOME>
      <OUTCOME>118</OUTCOME>
      <OUTCOME>119</OUTCOME>
      <OUTCOME>120</OUTCOME>
      <OUTCOME>121</OUTCOME>
      <OUTCOME>122</OUTCOME>
      <OUTCOME>123</OUTCOME>
      <OUTCOME>124</OUTCOME>
      <OUTCOME>125</OUTCOME>
      <OUTCOME>126</OUTCOME>
      <OUTCOME>127</OUTCOME>
      <OUTCOME>128</OUTCOME>
      <OUTCOME>129</OUTCOME>
      <OUTCOME>130</OUTCOME>
      <OUTCOME>131</OUTCOME>
      <OUTCOME>132</OUTCOME>
      <OUTCOME>133</OUTCOME>
      <OUTCOME>134</OUTCOME>
      <OUTCOME>135</OUTCOME>
      <OUTCOME>136</OUTCOME>
      <OUTCOME>137</OUTCOME>
      <OUTCOME>138</OUTCOME>
      <OUTCOME>139</OUTCOME>
      <OUTCOME>140</OUTCOME>
      <OUTCOME>141</OUTCOME>
      <OUTCOME>142</OUTCOME>
      <OUTCOME>143</OUTCOME>
      <OUTCOME>144</OUTCOME>
      <OUTCOME>145</OUTCOME>
      <OUTCOME>146</OUTCOME>
      <OUTCOME>147</OUTCOME>
      <OUTCOME>148</OUTCOME>
      <OUTCOME>150</OUTCOME>
      <OUTCOME>151</OUTCOME>
      <OUTCOME>152</OUTCOME>
      <OUTCOME>153</OUTCOME>
      <OUTCOME>155</OUTCOME>
      <OUTCOME>156</OUTCOME>
      <OUTCOME>157</OUTCOME>
      <OUTCOME>158</OUTCOME>
      <OUTCOME>159</OUTCOME>
      <OUTCOME>160</OUTCOME>
      <OUTCOME>161</OUTCOME>
      <OUTCOME>162</OUTCOME>
      <OUTCOME>163</OUTCOME>
      <OUTCOME>164</OUTCOME>
      <OUTCOME>165</OUTCOME>
      <OUTCOME>166</OUTCOME>
      <OUTCOME>167</OUTCOME>
      <OUTCOME>168</OUTCOME>
      <OUTCOME>169</OUTCOME>
      <OUTCOME>170</OUTCOME>
      <OUTCOME>171</OUTCOME>
      <OUTCOME>173</OUTCOME>
      <OUTCOME>174</OUTCOME>
      <OUTCOME>176</OUTCOME>
      <OUTCOME>177</OUTCOME>
      <OUTCOME>192</OUTCOME>
      <OUTCOME>193</OUTCOME>
      <OUTCOME>211</OUTCOME>
      <OUTCOME>215</OUTCOME>
      <OUTCOME>219</OUTCOME>
      <OUTCOME>223</OUTCOME>
      <OUTCOME>238</OUTCOME>
      <OUTCOME>241</OUTCOME>
      <OUTCOME>295</OUTCOME>
      <OUTCOME>386</OUTCOME>
      <PROPERTY />
    </VARIABLE>
    <VARIABLE TYPE="nature">
      <NAME>distance</NAME>
      <OUTCOME>0</OUTCOME>
      <OUTCOME>1</OUTCOME>
      <OUTCOME>2</OUTCOME>
      <OUTCOME>3</OUTCOME>
      <OUTCOME>4</OUTCOME>
      <OUTCOME>5</OUTCOME>
      <OUTCOME>6</OUTCOME>
      <OUTCOME>7</OUTCOME>
      <OUTCOME>8</OUTCOME>
      <OUTCOME>9</OUTCOME>
      <OUTCOME>10</OUTCOME>
      <OUTCOME>11</OUTCOME>
      <OUTCOME>12</OUTCOME>
      <OUTCOME>13</OUTCOME>
      <OUTCOME>14</OUTCOME>
      <OUTCOME>15</OUTCOME>
      <OUTCOME>16</OUTCOME>
      <OUTCOME>17</OUTCOME>
      <OUTCOME>18</OUTCOME>
      <OUTCOME>19</OUTCOME>
      <OUTCOME>20</OUTCOME>
      <OUTCOME>21</OUTCOME>
      <OUTCOME>22</OUTCOME>
      <OUTCOME>23</OUTCOME>
      <OUTCOME>24</OUTCOME>
      <OUTCOME>25</OUTCOME>
      <OUTCOME>26</OUTCOME>
      <OUTCOME>27</OUTCOME>
      <OUTCOME>28</OUTCOME>
      <OUTCOME>29</OUTCOME>
      <OUTCOME>30</OUTCOME>
      <OUTCOME>31</OUTCOME>
      <OUTCOME>32</OUTCOME>
      <OUTCOME>33</OUTCOME>
      <OUTCOME>34</OUTCOME>
      <OUTCOME>35</OUTCOME>
      <OUTCOME>36</OUTCOME>
      <OUTCOME>37</OUTCOME>
      <OUTCOME>38</OUTCOME>
      <OUTCOME>40</OUTCOME>
      <OUTCOME>41</OUTCOME>
      <OUTCOME>42</OUTCOME>
      <OUTCOME>43</OUTCOME>
      <OUTCOME>44</OUTCOME>
      <OUTCOME>45</OUTCOME>
      <OUTCOME>46</OUTCOME>
      <OUTCOME>47</OUTCOME>
      <OUTCOME>48</OUTCOME>
      <OUTCOME>49</OUTCOME>
      <OUTCOME>51</OUTCOME>
      <OUTCOME>52</OUTCOME>
      <OUTCOME>53</OUTCOME>
      <OUTCOME>54</OUTCOME>
      <OUTCOME>55</OUTCOME>
      <OUTCOME>56</OUTCOME>
      <OUTCOME>57</OUTCOME>
      <OUTCOME>58</OUTCOME>
      <OUTCOME>59</OUTCOME>
      <OUTCOME>60</OUTCOME>
      <OUTCOME>61</OUTCOME>
      <OUTCOME>62</OUTCOME>
      <OUTCOME>63</OUTCOME>
      <OUTCOME>64</OUTCOME>
      <OUTCOME>67</OUTCOME>
      <OUTCOME>71</OUTCOME>
      <OUTCOME>72</OUTCOME>
      <OUTCOME>73</OUTCOME>
      <OUTCOME>74</OUTCOME>
      <OUTCOME>75</OUTCOME>
      <OUTCOME>78</OUTCOME>
      <OUTCOME>80</OUTCOME>
      <OUTCOME>81</OUTCOME>
      <OUTCOME>91</OUTCOME>
      <OUTCOME>92</OUTCOME>
      <OUTCOME>100</OUTCOME>
      <OUTCOME>105</OUTCOME>
      <OUTCOME>117</OUTCOME>
      <OUTCOME>136</OUTCOME>
      <OUTCOME>138</OUTCOME>
      <OUTCOME>178</OUTCOME>
      <OUTCOME>197</OUTCOME>
      <OUTCOME>225</OUTCOME>
      <OUTCOME>264</OUTCOME>
      <OUTCOME>334</OUTCOME>
      <OUTCOME>349</OUTCOME>
      <OUTCOME>370</OUTCOME>
      <OUTCOME>375</OUTCOME>
      <OUTCOME>411</OUTCOME>
      <OUTCOME>437</OUTCOME>
      <OUTCOME>486</OUTCOME>
      <OUTCOME>549</OUTCOME>
      <OUTCOME>550</OUTCOME>
      <OUTCOME>577</OUTCOME>
      <OUTCOME>593</OUTCOME>
      <OUTCOME>595</OUTCOME>
      <OUTCOME>609</OUTCOME>
      <OUTCOME>610</OUTCOME>
      <OUTCOME>620</OUTCOME>
      <OUTCOME>622</OUTCOME>
      <PROPERTY />
    </VARIABLE>
    <VARIABLE TYPE="nature">
      <NAME>distance_SLO</NAME>
      <OUTCOME>False</OUTCOME>
      <OUTCOME>True</OUTCOME>
      <PROPERTY />
    </VARIABLE>
    <VARIABLE TYPE="nature">
      <NAME>fps</NAME>
      <OUTCOME>12</OUTCOME>
      <OUTCOME>16</OUTCOME>
      <OUTCOME>20</OUTCOME>
      <OUTCOME>26</OUTCOME>
      <OUTCOME>30</OUTCOME>
      <PROPERTY />
    </VARIABLE>
    <VARIABLE TYPE="nature">
      <NAME>memory</NAME>
      <OUTCOME>Low</OUTCOME>
      <OUTCOME>Mid</OUTCOME>
      <PROPERTY />
    </VARIABLE>
    <VARIABLE TYPE="nature">
      <NAME>pixel</NAME>
      <OUTCOME>25440</OUTCOME>
      <OUTCOME>57600</OUTCOME>
      <OUTCOME>102240</OUTCOME>
      <OUTCOME>230400</OUTCOME>
      <OUTCOME>409920</OUTCOME>
      <OUTCOME>921600</OUTCOME>
      <PROPERTY />
    </VARIABLE>
    <VARIABLE TYPE="nature">
      <NAME>time_SLO</NAME>
      <OUTCOME>False</OUTCOME>
      <OUTCOME>True</OUTCOME>
      <PROPERTY />
    </VARIABLE>
    <VARIABLE TYPE="nature">
      <NAME>transformed</NAME>
      <OUTCOME>False</OUTCOME>
      <OUTCOME>True</OUTCOME>
      <PROPERTY />
    </VARIABLE>
    <DEFINITION>
      <FOR>CPU</FOR>
      <GIVEN>GPU</GIVEN>
      <GIVEN>bitrate</GIVEN>
      <GIVEN>config</GIVEN>
      <TABLE>0.2805481537875904 0.0007613247049866769 0.4807765511990864 0.2379139703083365 0.43155893536121676 0.0007604562737642585 0.48098859315589354 0.08669201520912548 0.4988593155893536 0.0 0.0038022813688212928 0.4973384030418251 0.16967213114754098 0.4319672131147541 0.30491803278688523 0.09344262295081968 0.027049180327868853 0.7106557377049181 0.2614754098360656 0.000819672131147541 0.12786885245901639 0.3434426229508197 0.5221311475409836 0.006557377049180328 0.16009852216748768 0.6798029556650246 0.09852216748768473 0.06157635467980296 0.014754098360655738 0.7827868852459017 0.20163934426229507 0.000819672131147541 0.047540983606557376 0.46229508196721314 0.4557377049180328 0.03442622950819672 0.2571523619427811 0.002328675981370592 0.5156353958749168 0.22488356620093147 0.6636756397474244 0.0 0.19641076769690927 0.13991359255566632 0.04219269102990033 0.0 0.0033222591362126247 0.954485049833887 0.1765432098765432 0.08641975308641975 0.5524691358024691 0.1845679012345679 0.1836734693877551 0.38404452690166974 0.42857142857142855 0.0037105751391465678 0.1808641975308642 0.0006172839506172839 0.8030864197530864 0.015432098765432098 0.1533704390847248 0.4551638837353123 0.24118738404452691 0.150278293135436 0.06111111111111111 0.7512345679012346 0.18518518518518517 0.0024691358024691358 0.1339506172839506 0.008641975308641974 0.7506172839506173 0.10679012345679012 0.08809840425531915 0.1848404255319149 0.5561835106382979 0.17087765957446807 0.22757475083056478 0.206312292358804 0.5584717607973422 0.007641196013289037 0.009637753406447324 0.0 0.00033233632436025255 0.9900299102691924 0.3640416047548291 0.0009905894006934125 0.43486874690440813 0.20009905894006935 0.2908820614469772 0.024777006937561942 0.6526263627353815 0.031714568880079286 0.8891089108910891 0.0 0.0801980198019802 0.030693069306930693 0.13366336633663367 0.12029702970297029 0.5514851485148515 0.19455445544554456 0.1670798215171046 0.3852255825483391 0.43827466534457116 0.009419930589985127 0.7371287128712871 0.0 0.21633663366336633 0.046534653465346534 0.4560669456066946 0.0011411182959300114 0.3301635602890833 0.21262837580829214 0.7315589353612167 0.0 0.1467680608365019 0.12167300380228137 0.2893536121673004 0.0 0.004182509505703422 0.7064638783269962 0.1901863826550019 0.003803727653100038 0.5910992772917459 0.21491061240015216 0.2596117244004568 0.00038066235249333843 0.6676817662733155 0.0723258469737343 0.4935361216730038 0.0 0.0 0.5064638783269962 0.17950819672131146 0.6762295081967213 0.13360655737704918 0.010655737704918032 0.011475409836065573 0.7926229508196722 0.19508196721311474 0.000819672131147541 0.04344262295081967 0.39262295081967213 0.5368852459016393 0.027049180327868853 0.446773120425815 0.00033266799733865603 0.3373253493013972 0.2155688622754491 0.7259136212624585 0.000664451827242525 0.17109634551495018 0.10232558139534884 0.08308408109006314 0.0 0.003988035892323031 0.9129278830176139 0.09355765285186705 0.8001641362330735 0.0943783340172343 0.011899876897825195 0.009426229508196722 0.885655737704918 0.10491803278688525 0.0 0.012295081967213115 0.9680327868852459 0.01639344262295082 0.003278688524590164 0.1558139534883721 0.011960132890365448 0.6375415282392026 0.1946843853820598 0.56168939142002 0.0 0.30495510475557036 0.13335550382440972 0.03388704318936877 0.0 0.0003322259136212625 0.96578073089701 0.10740740740740741 0.5561728395061728 0.2074074074074074 0.12901234567901235 0.08967223252937538 0.660482374768089 0.24737167594310452 0.0024737167594310453 0.1605929586164299 0.0030883261272390363 0.7967881408276714 0.03953057442865967 0.08709079678814083 0.8276714021000617 0.054045707226683136 0.031192093885114267 0.012654320987654321 0.7910493827160494 0.1941358024691358 0.0021604938271604936 0.016666666666666666 0.11851851851851852 0.8592592592592593 0.005555555555555556 0.11831683168316831 0.1188118811881188 0.5876237623762376 0.17524752475247524 0.21287128712871287 0.22623762376237624 0.5450495049504951 0.015841584158415842 0.7752475247524753 0.0 0.200990099009901 0.023762376237623763 0.18770491803278688 0.5860655737704918 0.18032786885245902 0.04590163934426229 0.010655737704918032 0.7983606557377049 0.18934426229508197 0.001639344262295082 0.03278688524590164 0.3737704918032787 0.590983606557377 0.002459016393442623 0.05845925191974238 0.7574931880108992 0.10552390388902651 0.07852365618033193 0.05323099777172567 0.6996781381530082 0.24139638524387225 0.00569447883139391 0.10272277227722772 0.0 0.8933168316831683 0.0039603960396039604 0.15361216730038021 0.00494296577946768 0.6642585551330799 0.17718631178707225 0.32813688212927755 0.0007604562737642585 0.5961977186311787 0.07490494296577947 0.48365019011406846 0.0 0.0022813688212927757 0.5140684410646388 0.1814814814814815 0.24320987654320989 0.39012345679012345 0.18518518518518517 0.09820877084620136 0.7171093267449042 0.1791229153798641 0.005558987029030266 0.17901234567901234 0.001851851851851852 0.7802469135802469 0.03888888888888889 0.12055523863852444 0.21753185016162768 0.4966723711732268 0.16524054002662103 0.17995054213429712 0.5379494007989347 0.27392048696975463 0.008179570097013505 0.8954173797299867 0.0 0.00038030043734550294 0.10420231983266781 0.18704318936877076 0.002325581395348837 0.5807308970099668 0.22990033222591363 0.6049218490189557 0.0003325573661456601 0.2943132690389092 0.10043232457598936 0.028580923894981722 0.0 0.002326354270521768 0.9690927218344965 0.15254237288135594 0.12495845795945497 0.5347291458956464 0.1877700232635427 0.2301032301032301 0.2733932733932734 0.4725274725274725 0.023976023976023976 0.011295681063122924 0.0 0.0 0.988704318936877 0.17326732673267325 0.02277227722772277 0.5777227722772277 0.22623762376237624 0.17623762376237623 0.17772277227722771 0.6282178217821782 0.01782178217821782 0.8074257425742575 0.0 0.16485148514851486 0.027722772277227723 0.00038022813688212925 0.9752851711026616 0.024334600760456272 0.0 0.00494484594903005 0.8109547356409281 0.18410041841004185 0.0 0.034220532319391636 0.9338403041825095 0.02547528517110266 0.006463878326996198 0.0 0.9975409836065574 0.002459016393442623 0.0 0.003284072249589491 0.9523809523809523 0.04351395730706076 0.0008210180623973727 0.046875 0.8988486842105263 0.03700657894736842 0.017269736842105265 0.0 1.0 0.0 0.0 0.0016406890894175555 0.9835931091058244 0.01394585726004922 0.0008203445447087777 0.10081967213114754 0.6959016393442623 0.13442622950819672 0.06885245901639345 0.0003322259136212625 0.9292358803986711 0.07043189368770764 0.0 0.03189368770764119 0.7906976744186046 0.17641196013289037 0.0009966777408637873 0.08704318936877077 0.7425249169435216 0.10332225913621262 0.06710963455149502 0.0 0.9975308641975309 0.0024691358024691358 0.0 0.001854140914709518 0.8782447466007417 0.11990111248454882 0.0 0.034610630407911 0.892459826946848 0.0550061804697157 0.01792336217552534 0.0 0.995679012345679 0.004320987654320987 0.0 0.0 0.9752628324056896 0.024737167594310452 0.0 0.15203955500618047 0.695920889987639 0.13906056860321384 0.012978986402966625 0.000664451827242525 0.9990033222591362 0.0003322259136212625 0.0 0.003654485049833887 0.9747508305647841 0.02159468438538206 0.0 0.20764119601328904 0.662126245847176 0.06943521594684385 0.06079734219269103 0.0 0.9920792079207921 0.007920792079207921 0.0 0.004955401387512388 0.8240832507433102 0.17046580773042616 0.0004955401387512388 0.02478929102627665 0.8557263262270699 0.10758552305404065 0.011898859692612791 0.0 0.9910891089108911 0.00891089108910891 0.0 0.0009915716410510659 0.9157164105106594 0.08279623202776401 0.0004957858205255329 0.17574257425742573 0.6881188118811881 0.12475247524752475 0.011386138613861386 0.0 0.9231939163498099 0.07680608365019011 0.0 0.057034220532319393 0.7638783269961977 0.17718631178707225 0.0019011406844106464 0.055133079847908745 0.6193916349809886 0.31102661596958175 0.014448669201520912 0.0007627765064836003 0.9778794813119756 0.02135774218154081 0.0 0.0019011406844106464 0.847148288973384 0.15095057034220533 0.0 0.22649409973353635 0.6338028169014085 0.10277883517320137 0.036924248191853824 0.0 0.9991803278688525 0.000819672131147541 0.0 0.0 0.9959016393442623 0.004098360655737705 0.0 0.1214109926168991 0.7374897456931911 0.13289581624282198 0.008203445447087777 0.000664451827242525 0.8504983388704319 0.14883720930232558 0.0 0.09966777408637874 0.6754152823920265 0.22059800664451829 0.004318936877076412 0.20771020272515786 0.39149219009637753 0.384180790960452 0.01661681621801263 0.0 1.0 0.0 0.0 0.000819672131147541 0.9885245901639345 0.010655737704918032 0.0 0.04057377049180328 0.8086065573770492 0.14549180327868852 0.005327868852459016 0.00033311125916055963 0.9640239840106596 0.03497668221185876 0.0006662225183211193 0.009966777408637873 0.8146179401993355 0.17475083056478405 0.000664451827242525 0.19574609504818877 0.6188102359587903 0.11498836822864739 0.07045530076437355 0.0 0.9987639060568603 0.0012360939431396785 0.0 0.002472187886279357 0.9616810877626699 0.03522867737948084 0.0006180469715698393 0.15822002472187885 0.7101359703337453 0.11681087762669963 0.014833127317676144 0.0 0.9996911673872761 0.00030883261272390367 0.0 0.0003091190108191654 0.9938176197836167 0.005873261205564142 0.0 0.06674907292954264 0.7775030902348579 0.14555006180469715 0.01019777503090235 0.0 0.994059405940594 0.005940594059405941 0.0 0.0049504950495049506 0.8975247524752475 0.09752475247524753 0.0 0.18285431119920714 0.6655104063429138 0.12140733399405351 0.03022794846382557 0.0 0.9983606557377049 0.001639344262295082 0.0 0.001644736842105263 0.977796052631579 0.019736842105263157 0.0008223684210526315 0.026251025430680888 0.9343724364232978 0.03855619360131255 0.0008203445447087777 0.00024764735017335313 0.9987617632491332 0.0009905894006934125 0.0 0.0014855162168853676 0.9886110423372122 0.009903441445902451 0.0 0.10495049504950495 0.7618811881188119 0.12153465346534653 0.011633663366336634 0.0007604562737642585 0.9832699619771863 0.01596958174904943 0.0 0.012167300380228136 0.8330798479087452 0.1543726235741445 0.00038022813688212925 0.2484779299847793 0.4410197869101979 0.1251902587519026 0.18531202435312025 0.0 0.9938271604938271 0.006172839506172839 0.0 0.004320987654320987 0.9493827160493827 0.046296296296296294 0.0 0.07222222222222222 0.8635802469135803 0.050617283950617285 0.013580246913580247 0.0 0.9992395437262357 0.0007604562737642585 0.0 0.0005703422053231939 0.9899239543726236 0.009505703422053232 0.0 0.16856925418569255 0.7737823439878234 0.050799086757990865 0.00684931506849315 0.0009966777408637873 0.9441860465116279 0.054817275747508304 0.0 0.025913621262458473 0.8112956810631229 0.16046511627906976 0.002325581395348837 0.20897009966777408 0.5800664451827242 0.0760797342192691 0.13488372093023257 0.0006646726487205051 0.9993353273512795 0.0 0.0 0.00897308075772682 0.9651046859421735 0.020937188434695914 0.004985044865403789 0.16483881688268529 0.7796610169491526 0.04154204054503157 0.013958125623130608 0.0 0.9861386138613861 0.013861386138613862 0.0 0.0039603960396039604 0.8801980198019802 0.11584158415841585 0.0 0.029717682020802376 0.9504705299653293 0.01733531451213472 0.0024764735017335313 </TABLE>
    </DEFINITION>
    <DEFINITION>
      <FOR>GPU</FOR>
      <TABLE>0.5000238193540191 0.49997618064598087 </TABLE>
    </DEFINITION>
    <DEFINITION>
      <FOR>bitrate</FOR>
      <GIVEN>fps</GIVEN>
      <GIVEN>pixel</GIVEN>
      <TABLE>0.0 0.0 0.0 0.0 0.0 0.0 0.0 0.0 0.0 0.0 0.0 0.0 0.0 1.0 0.0 0.0 0.0 0.0 0.0 0.0 0.0 0.0 0.0 0.0 0.0 0.0 0.038461538461538464 0.038461538461538464 0.038461538461538464 0.038461538461538464 0.038461538461538464 0.038461538461538464 0.038461538461538464 0.038461538461538464 0.038461538461538464 0.038461538461538464 0.038461538461538464 0.038461538461538464 0.038461538461538464 0.038461538461538464 0.038461538461538464 0.038461538461538464 0.038461538461538464 0.038461538461538464 0.038461538461538464 0.038461538461538464 0.038461538461538464 0.038461538461538464 0.038461538461538464 0.038461538461538464 0.038461538461538464 0.038461538461538464 0.0 0.0 1.0 0.0 0.0 0.0 0.0 0.0 0.0 0.0 0.0 0.0 0.0 0.0 0.0 0.0 0.0 0.0 0.0 0.0 0.0 0.0 0.0 0.0 0.0 0.0 0.0 0.0 0.0 0.0 0.0 0.0 0.0 0.0 0.0 0.0 0.0 1.0 0.0 0.0 0.0 0.0 0.0 0.0 0.0 0.0 0.0 0.0 0.0 0.0 0.0 0.0 0.0 0.0 0.0 0.0 0.0 0.0 0.0 0.0 0.0 0.0 0.0 0.0 0.0 0.0 0.0 0.0 0.0 0.0 1.0 0.0 0.0 0.0 0.0 0.0 0.0 0.0 0.0 1.0 0.0 0.0 0.0 0.0 0.0 0.0 0.0 0.0 0.0 0.0 0.0 0.0 0.0 0.0 0.0 0.0 0.0 0.0 0.0 0.0 0.0 0.0 0.0 0.0 0.0 0.0 0.0 0.0 0.0 0.0 0.0 0.0 0.0 0.0 0.0 0.0 0.0 0.0 0.0 0.0 1.0 0.0 0.0 0.0 0.0 0.0 0.0 0.0 0.0 0.0 0.038461538461538464 0.038461538461538464 0.038461538461538464 0.038461538461538464 0.038461538461538464 0.038461538461538464 0.038461538461538464 0.038461538461538464 0.038461538461538464 0.038461538461538464 0.038461538461538464 0.038461538461538464 0.038461538461538464 0.038461538461538464 0.038461538461538464 0.038461538461538464 0.038461538461538464 0.038461538461538464 0.038461538461538464 0.038461538461538464 0.038461538461538464 0.038461538461538464 0.038461538461538464 0.038461538461538464 0.038461538461538464 0.038461538461538464 0.0 0.0 0.0 0.0 0.0 1.0 0.0 0.0 0.0 0.0 0.0 0.0 0.0 0.0 0.0 0.0 0.0 0.0 0.0 0.0 0.0 0.0 0.0 0.0 0.0 0.0 0.0 0.0 0.0 0.0 0.0 0.0 0.0 0.0 0.0 0.0 0.0 0.0 0.0 0.0 0.0 1.0 0.0 0.0 0.0 0.0 0.0 0.0 0.0 0.0 0.0 0.0 0.0 0.0 0.0 0.0 0.0 0.0 0.0 0.0 0.0 0.0 0.0 0.0 0.0 0.0 0.0 0.0 0.0 0.0 0.0 0.0 0.0 1.0 0.0 0.0 0.0 0.0 0.0 0.0 0.0 0.0 1.0 0.0 0.0 0.0 0.0 0.0 0.0 0.0 0.0 0.0 0.0 0.0 0.0 0.0 0.0 0.0 0.0 0.0 0.0 0.0 0.0 0.0 0.0 0.0 0.0 0.0 0.0 0.0 0.0 0.0 0.0 0.0 0.0 0.0 0.0 0.0 0.0 0.0 0.0 0.0 0.0 1.0 0.0 0.0 0.0 0.0 0.0 0.0 0.038461538461538464 0.038461538461538464 0.038461538461538464 0.038461538461538464 0.038461538461538464 0.038461538461538464 0.038461538461538464 0.038461538461538464 0.038461538461538464 0.038461538461538464 0.038461538461538464 0.038461538461538464 0.038461538461538464 0.038461538461538464 0.038461538461538464 0.038461538461538464 0.038461538461538464 0.038461538461538464 0.038461538461538464 0.038461538461538464 0.038461538461538464 0.038461538461538464 0.038461538461538464 0.038461538461538464 0.038461538461538464 0.038461538461538464 0.0 0.0 0.0 0.0 0.0 0.0 0.0 0.0 1.0 0.0 0.0 0.0 0.0 0.0 0.0 0.0 0.0 0.0 0.0 0.0 0.0 0.0 0.0 0.0 0.0 0.0 0.0 0.0 0.0 0.0 0.0 0.0 0.0 0.0 0.0 0.0 0.0 0.0 0.0 0.0 0.0 0.0 0.0 1.0 0.0 0.0 0.0 0.0 0.0 0.0 0.0 0.0 0.0 0.0 0.0 0.0 0.0 0.0 0.0 0.0 0.0 0.0 0.0 0.0 0.0 0.0 0.0 0.0 0.0 0.0 0.0 0.0 0.0 0.0 0.0 0.0 0.0 1.0 0.0 0.0 0.0 0.0 0.0 0.0 0.0 1.0 0.0 0.0 0.0 0.0 0.0 0.0 0.0 0.0 0.0 0.0 0.0 0.0 0.0 0.0 0.0 0.0 0.0 0.0 0.0 0.0 0.0 0.0 0.0 0.0 0.0 0.0 0.0 0.0 0.0 0.0 0.0 0.0 0.0 0.0 0.0 0.0 0.0 0.0 0.0 0.0 1.0 0.0 0.0 0.0 0.038461538461538464 0.038461538461538464 0.038461538461538464 0.038461538461538464 0.038461538461538464 0.038461538461538464 0.038461538461538464 0.038461538461538464 0.038461538461538464 0.038461538461538464 0.038461538461538464 0.038461538461538464 0.038461538461538464 0.038461538461538464 0.038461538461538464 0.038461538461538464 0.038461538461538464 0.038461538461538464 0.038461538461538464 0.038461538461538464 0.038461538461538464 0.038461538461538464 0.038461538461538464 0.038461538461538464 0.038461538461538464 0.038461538461538464 0.0 0.0 0.0 0.0 0.0 0.0 0.0 0.0 0.0 0.0 1.0 0.0 0.0 0.0 0.0 0.0 0.0 0.0 0.0 0.0 0.0 0.0 0.0 0.0 0.0 0.0 0.0 0.0 0.0 0.0 0.0 0.0 0.0 0.0 0.0 0.0 0.0 0.0 0.0 0.0 0.0 0.0 0.0 0.0 0.0 0.0 1.0 0.0 0.0 0.0 0.0 0.0 1.0 0.0 0.0 0.0 0.0 0.0 0.0 0.0 0.0 0.0 0.0 0.0 0.0 0.0 0.0 0.0 0.0 0.0 0.0 0.0 0.0 0.0 0.0 0.0 0.0 0.0 0.0 0.0 0.0 0.0 0.0 0.0 0.0 0.0 0.0 1.0 0.0 0.0 0.0 0.0 0.0 0.0 0.0 0.0 0.0 0.0 0.0 0.0 0.0 0.0 0.0 0.0 0.0 0.0 0.0 0.0 0.0 0.0 0.0 0.0 0.0 0.0 0.0 0.0 0.0 0.0 0.0 0.0 0.0 0.0 0.0 0.0 0.0 0.0 0.0 0.0 1.0 0.0 0.0 0.0 0.0 0.0 0.0 0.0 1.0 0.0 0.0 0.0 0.0 0.0 0.0 0.0 0.0 0.0 0.0 0.0 0.0 0.0 0.0 0.0 0.0 0.0 0.0 0.0 0.0 0.0 0.0 0.0 0.0 0.0 0.0 0.0 0.0 0.0 0.0 0.0 0.0 0.0 1.0 0.0 0.0 0.0 0.0 0.0 0.0 0.0 0.0 0.0 0.0 0.0 0.0 0.0 0.0 0.0 0.0 0.0 0.0 0.0 0.0 0.0 0.0 0.0 0.0 0.0 0.0 0.0 0.0 0.0 0.0 0.0 0.0 0.0 0.0 1.0 0.0 0.0 0.0 0.0 0.0 1.0 0.0 0.0 0.0 0.0 0.0 0.0 0.0 0.0 0.0 0.0 0.0 0.0 0.0 0.0 0.0 0.0 0.0 0.0 0.0 0.0 0.0 0.0 0.0 0.0 0.0 0.0 0.0 0.0 0.0 0.0 0.0 0.0 0.0 0.0 1.0 0.0 0.0 0.0 0.0 0.0 0.0 0.0 0.0 0.0 0.0 0.0 0.0 0.0 </TABLE>
    </DEFINITION>
    <DEFINITION>
      <FOR>config</FOR>
      <TABLE>0.33332010035887827 0.3333121605742052 0.3333677390669165 </TABLE>
    </DEFINITION>
    <DEFINITION>
      <FOR>consumption</FOR>
      <GIVEN>GPU</GIVEN>
      <GIVEN>bitrate</GIVEN>
      <GIVEN>config</GIVEN>
      <TABLE>0.0 0.0 1.0 0.0 0.0 0.0 0.0 1.0 0.0 0.0 0.0 0.0 0.0844106463878327 0.9155893536121673 0.0 0.0 1.0 0.0 0.0 0.0 0.0 0.0 0.9180327868852459 0.08196721311475409 0.0 0.0 0.3483606557377049 0.569672131147541 0.08196721311475409 0.0 0.5656814449917899 0.4343185550082102 0.0 0.0 0.0 0.0 0.230327868852459 0.769672131147541 0.0 0.0 0.0 0.5827868852459016 0.38278688524590165 0.03442622950819672 0.0 0.0 0.4341317365269461 0.5658682634730539 0.0 0.0 0.0 0.0 0.06181455633100698 0.938185443668993 0.0 0.0 0.0 0.0 1.0 0.0 0.0 1.0 0.0 0.0 0.0 0.0 0.0 0.9177489177489178 0.08225108225108226 0.0 0.0 0.0 1.0 0.0 0.0 0.0 0.1614100185528757 0.8385899814471243 0.0 0.0 0.0 1.0 0.0 0.0 0.0 0.0 0.09320987654320988 0.9067901234567901 0.0 0.0 0.0 1.0 0.0 0.0 0.0 0.0 0.0 0.7807308970099668 0.21926910299003322 0.0 0.0 0.0 0.0 0.8956463941508807 0.1043536058491193 0.0 1.0 0.0 0.0 0.0 0.0 0.0 0.2794846382556987 0.7205153617443013 0.0 0.0 0.0 0.17326732673267325 0.8267326732673267 0.0 0.0 0.0 1.0 0.0 0.0 0.0 1.0 0.0 0.0 0.0 0.0 0.0 0.25396039603960396 0.746039603960396 0.0 0.0 0.9307721567135793 0.06922784328642069 0.0 0.0 0.0 0.0 0.24068441064638782 0.7593155893536122 0.0 0.0 0.0 0.0 1.0 0.0 0.0 0.0 1.0 0.0 0.0 0.0 0.09897221164826799 0.901027788351732 0.0 0.0 0.0 0.0 0.0 1.0 0.0 0.44426229508196724 0.5557377049180328 0.0 0.0 0.0 0.0 0.0 0.9565573770491803 0.04344262295081967 0.0 0.0 0.3483606557377049 0.5942622950819673 0.05737704918032787 0.0 0.0 1.0 0.0 0.0 0.0 0.0 0.0 1.0 0.0 0.0 0.0 0.0 0.0 0.9069458291791292 0.09305417082087072 0.0 0.8781288469429627 0.12187115305703734 0.0 0.0 0.0 0.12786885245901639 0.8721311475409836 0.0 0.0 0.028278688524590163 0.4733606557377049 0.47172131147540985 0.0 0.02663934426229508 0.0 0.746843853820598 0.253156146179402 0.0 0.0 0.0 0.0 0.7648819421350183 0.23511805786498172 0.0 0.0 0.0 0.0 0.7591362126245847 0.24086378737541528 0.03271604938271605 0.967283950617284 0.0 0.0 0.0 0.0 0.0 1.0 0.0 0.0 0.0 0.09141445336627547 0.9085855466337245 0.0 0.0 0.0 0.955219271155034 0.044780728844966027 0.0 0.0 0.0 0.0 1.0 0.0 0.0 0.0 0.15401234567901234 0.7935185185185185 0.05246913580246913 0.0 0.0 1.0 0.0 0.0 0.0 0.0 0.12227722772277227 0.7757425742574258 0.10198019801980197 0.0 0.0 0.0 0.4212871287128713 0.5787128712871287 0.0 0.0 0.20737704918032787 0.7926229508196722 0.0 0.0 0.0 0.828688524590164 0.17131147540983607 0.0 0.0 0.0 0.6491803278688525 0.27459016393442626 0.07622950819672131 0.0 0.0 0.9484765915283626 0.051523408471637354 0.0 0.0 0.0 0.0 1.0 0.0 0.0 0.0 0.04455445544554455 0.9554455445544554 0.0 0.0 0.0 1.0 0.0 0.0 0.0 0.0 0.0908745247148289 0.9091254752851711 0.0 0.0 0.0 0.0 0.0844106463878327 0.9155893536121673 0.0 0.0 0.0 1.0 0.0 0.0 0.0 1.0 0.0 0.0 0.0 0.0 0.027777777777777776 0.9722222222222222 0.0 0.0 0.0 0.7754325917474805 0.2245674082525195 0.0 0.0 0.0 0.0 0.9010842685942553 0.09891573140574472 0.0 0.0 0.0 0.12492869366799772 0.8750713063320023 0.0 0.0 0.3554817275747508 0.6445182724252492 0.0 0.0 0.0 0.0 1.0 0.0 0.0 0.0 0.0 0.0 1.0 0.0 0.0 0.0 1.0 0.0 0.0 0.0 0.0 0.8881118881118881 0.11188811188811189 0.0 0.0 0.0 0.0 0.753156146179402 0.246843853820598 0.0 0.0 1.0 0.0 0.0 0.0 0.04257425742574258 0.9574257425742574 0.0 0.0 0.0 0.0 0.3920792079207921 0.6079207920792079 0.0 0.0 0.029277566539923954 0.970722433460076 0.0 0.0 0.0 0.8136173449980981 0.18638265500190188 0.0 0.0 0.0 0.006463878326996198 0.9935361216730038 0.0 0.0 0.0 0.8860655737704918 0.1139344262295082 0.0 0.0 0.0 0.7873563218390804 0.21264367816091953 0.0 0.0 0.0 0.8125 0.0 0.1875 0.0 0.0 1.0 0.0 0.0 0.0 0.0 1.0 0.0 0.0 0.0 0.0 0.48114754098360657 0.5188524590163934 0.0 0.0 0.0 0.0 1.0 0.0 0.0 0.0 0.06578073089700996 0.93421926910299 0.0 0.0 0.0 0.0 0.7491694352159468 0.25083056478405313 0.0 0.0 1.0 0.0 0.0 0.0 0.0 1.0 0.0 0.0 0.0 0.0 0.5080346106304079 0.4919653893695921 0.0 0.0 0.0 1.0 0.0 0.0 0.0 0.0 1.0 0.0 0.0 0.0 0.0 0.18046971569839307 0.8195302843016069 0.0 0.0 0.0 0.8996677740863788 0.10033222591362126 0.0 0.0 0.0 1.0 0.0 0.0 0.0 0.0 0.30697674418604654 0.6930232558139535 0.0 0.0 0.0 0.047524752475247525 0.9524752475247524 0.0 0.0 0.0 0.4663032705649158 0.5336967294350843 0.0 0.0 0.0 0.0 1.0 0.0 0.0 0.0 1.0 0.0 0.0 0.0 0.0 1.0 0.0 0.0 0.0 0.0 0.09108910891089109 0.9089108910891089 0.0 0.0 0.0 0.0 1.0 0.0 0.0 0.0 0.0 1.0 0.0 0.0 0.0 0.0 1.0 0.0 0.0 0.0 0.17887109077040428 0.8211289092295957 0.0 0.0 0.0 0.6570342205323194 0.3429657794676806 0.0 0.0 0.0 0.0 1.0 0.0 0.0 0.0 0.9622950819672131 0.03770491803278689 0.0 0.0 0.0 0.9778688524590164 0.022131147540983605 0.0 0.0 0.0 0.4889253486464315 0.5110746513535686 0.0 0.0 0.0 0.0 1.0 0.0 0.0 0.0 0.0 1.0 0.0 0.0 0.0 0.0 0.9036224659355268 0.09637753406447325 0.0 0.04797047970479705 0.8048380483804838 0.14719147191471915 0.0 0.0 0.0 0.764344262295082 0.23565573770491804 0.0 0.0 0.3709016393442623 0.5532786885245902 0.07581967213114754 0.0 0.0 0.0 0.0 1.0 0.0 0.0 0.0 0.10398671096345515 0.8960132890365449 0.0 0.0 0.0 0.0 1.0 0.0 0.0 0.0 1.0 0.0 0.0 0.0 0.0 1.0 0.0 0.0 0.0 0.0 0.5754017305315204 0.4245982694684796 0.0 0.0 0.0 0.5206917850525016 0.4793082149474985 0.0 0.0 0.0 0.773724884080371 0.22627511591962907 0.0 0.0 0.029666254635352288 0.630716934487021 0.3396168108776267 0.0 0.0 0.0 1.0 0.0 0.0 0.0 0.0 1.0 0.0 0.0 0.0 0.0 0.0 1.0 0.0 0.0 0.0 0.8950819672131147 0.08278688524590164 0.022131147540983605 0.0 0.0 0.9021381578947368 0.09786184210526316 0.0 0.0 0.0 0.8162428219852338 0.1837571780147662 0.0 0.0 0.0 0.49975235264982665 0.5002476473501734 0.0 0.0 0.0 0.15746471898984898 0.8425352810101511 0.0 0.0 0.0 0.6955445544554455 0.30445544554455445 0.0 0.0 0.0 0.06539923954372624 0.9346007604562737 0.0 0.0 0.0 0.9102661596958175 0.08973384030418251 0.0 0.0 0.0 0.0 1.0 0.0 0.0 0.0 1.0 0.0 0.0 0.0 0.0 1.0 0.0 0.0 0.0 0.0 0.5117283950617284 0.4882716049382716 0.0 0.0 0.0 0.9711026615969581 0.028897338403041824 0.0 0.0 0.0 0.7053231939163498 0.2946768060836502 0.0 0.0 0.0 0.6156773211567732 0.3843226788432268 0.0 0.0 0.0 0.0 0.9159468438538206 0.0840531561461794 0.0 0.0 0.02558139534883721 0.9744186046511628 0.0 0.0 0.0 0.0 0.7322259136212624 0.26777408637873756 0.0 0.0 0.5938850116317713 0.4061149883682286 0.0 0.0 0.0 0.5636424061149884 0.33233632436025257 0.10402126952475906 0.0 0.0 1.0 0.0 0.0 0.0 0.0 1.0 0.0 0.0 0.0 0.0 0.906930693069307 0.09306930693069307 0.0 0.0 0.0 0.6092124814264487 0.39078751857355126 0.0 0.0 </TABLE>
    </DEFINITION>
    <DEFINITION>
      <FOR>delay</FOR>
      <GIVEN>GPU</GIVEN>
      <GIVEN>config</GIVEN>
      <GIVEN>pixel</GIVEN>
      <TABLE>0.0 0.0 0.0 0.0 0.0 0.0 0.0 0.0 0.0 0.0 0.0 0.0 0.0 0.0 0.0 0.0 0.0 0.0 0.0 0.0 0.0 0.0 0.0 0.0 0.0 0.0017797552836484984 0.17046718576195774 0.3164071190211346 0.1807563959955506 0.09421579532814238 0.054727474972191326 0.042992213570634034 0.028976640711902115 0.023637374860956618 0.017908787541713014 0.012903225806451613 0.010122358175750834 0.008898776418242492 0.007730812013348165 0.006006674082313682 0.004783092324805339 0.003114571746384872 0.0021134593993325916 0.0014460511679644048 0.0012235817575083426 0.0007230255839822024 0.0008898776418242492 0.0007230255839822024 0.0005005561735261402 0.00027808676307007786 0.00027808676307007786 0.00027808676307007786 0.0003337041156840934 0.0003337041156840934 0.000389321468298109 0.00011123470522803115 0.0004449388209121246 0.0002224694104560623 0.0001668520578420467 0.000389321468298109 0.00011123470522803115 0.00027808676307007786 0.00027808676307007786 5.5617352614015575e-05 0.00011123470522803115 0.00011123470522803115 0.00011123470522803115 0.0002224694104560623 0.0001668520578420467 5.5617352614015575e-05 5.5617352614015575e-05 0.0001668520578420467 5.5617352614015575e-05 5.5617352614015575e-05 5.5617352614015575e-05 0.0003337041156840934 0.0 5.5617352614015575e-05 0.00011123470522803115 5.5617352614015575e-05 0.0001668520578420467 0.00011123470522803115 0.0 0.0002224694104560623 0.0 5.5617352614015575e-05 0.0 0.0 5.5617352614015575e-05 0.0 0.0 5.5617352614015575e-05 5.5617352614015575e-05 5.5617352614015575e-05 5.5617352614015575e-05 0.0 5.5617352614015575e-05 5.5617352614015575e-05 0.0 0.0 0.0 0.0 0.0 5.5617352614015575e-05 0.0 5.5617352614015575e-05 0.0 0.0 0.0 0.0 0.0 0.0 0.0 0.0 0.0 0.0 0.0 0.0 0.0 0.0 0.0 0.0 0.0 0.0 0.0 0.0 0.0 0.0 0.0 0.0 5.5617352614015575e-05 0.0 0.0 0.0 0.0 0.0 0.0 5.5617352614015575e-05 0.0 0.0 5.5617352614015575e-05 0.0 0.0 0.0 0.0 0.0 0.0 0.0 0.0 5.5617352614015575e-05 0.0 0.0 0.0 0.0 0.0 0.0 0.0 0.0 0.0 0.0 0.0 0.0 0.0 0.0 0.0 0.0 0.0 0.0 0.0 0.0 0.0 0.0 0.0 0.0 0.0 0.0 0.0 0.0 0.0 0.0 0.0 0.0 0.0 0.0 0.0 0.0 0.0 0.0 0.0 0.0 0.0 0.0 0.0 0.0 0.0 0.0 0.0 0.0 0.0019946808510638296 0.024268617021276594 0.032247340425531915 0.21941489361702127 0.27825797872340424 0.13929521276595744 0.07845744680851063 0.05751329787234043 0.05518617021276596 0.031914893617021274 0.016622340425531915 0.00997340425531915 0.013297872340425532 0.008643617021276596 0.007646276595744681 0.004654255319148936 0.004986702127659575 0.004986702127659575 0.0026595744680851063 0.0009973404255319148 0.0009973404255319148 0.0003324468085106383 0.0013297872340425532 0.0003324468085106383 0.0003324468085106383 0.0003324468085106383 0.0003324468085106383 0.0 0.0003324468085106383 0.0 0.0 0.0 0.0 0.0003324468085106383 0.0003324468085106383 0.0 0.0 0.0 0.0 0.0 0.0 0.0003324468085106383 0.0 0.0 0.0 0.0 0.0 0.0 0.0 0.0 0.0 0.0 0.0 0.0 0.0003324468085106383 0.0 0.0 0.0 0.0 0.0 0.0 0.0 0.0 0.0003324468085106383 0.0 0.0 0.0 0.0 0.0 0.0003324468085106383 0.0 0.0 0.0003324468085106383 0.0 0.0 0.0 0.0 0.0 0.0 0.0 0.0003324468085106383 0.0 0.0 0.0 0.0 0.0 0.0 0.0 0.0 0.0 0.0 0.0 0.0 0.0 0.0 0.0 0.0 0.0 0.0 0.0 0.0 0.0 0.0 0.0 0.0 0.0 0.0 0.0 0.0 0.0 0.0 0.0 0.0 0.0 0.0 0.0 0.0 0.0 0.0 0.0 0.0 0.0 0.0 0.0 0.0 0.0 0.0 0.0 0.0 0.0 0.0 0.0 0.0 0.0 0.0 0.0 0.0 0.0 0.0 0.0 0.0 0.0 0.0 0.0 0.0 0.0 0.0 0.0 0.0 0.0 0.0 0.0 0.0 0.0 0.0 0.0 0.0 0.0 0.0 0.0 0.0 0.0 0.0 0.0 0.0 0.0 0.0 0.0 0.0 0.0 0.0 0.0 0.0 0.0 0.001905850962454736 0.004383457213645893 0.0693729750333524 0.22517629121402707 0.1732418524871355 0.10110539355822375 0.07213645892891175 0.05231560891938251 0.033733562035448826 0.026967791118734517 0.025443110348770726 0.02477606251191157 0.024013722126929673 0.022774919001334097 0.01972555746140652 0.017629121402706307 0.01581856298837431 0.013340956737183152 0.011720983419096626 0.010101010101010102 0.007623403849818944 0.007528111301696208 0.006384600724223366 0.004288164665523156 0.0036211168286639983 0.0026681913474366306 0.002001143510577473 0.00238231370306842 0.001429388221841052 0.0018105584143319991 0.000476462740613684 0.0005717552887364208 0.0005717552887364208 0.0008576329331046312 0.0005717552887364208 0.0003811701924909472 0.0005717552887364208 0.0005717552887364208 0.0003811701924909472 0.0002858776443682104 0.0001905850962454736 0.000476462740613684 0.0001905850962454736 0.0003811701924909472 0.0001905850962454736 9.52925481227368e-05 0.0002858776443682104 0.0005717552887364208 0.0003811701924909472 0.0003811701924909472 0.0002858776443682104 0.0001905850962454736 0.0002858776443682104 0.0 0.0002858776443682104 0.0 0.0001905850962454736 0.0001905850962454736 0.0002858776443682104 9.52925481227368e-05 0.0001905850962454736 0.0001905850962454736 0.0001905850962454736 0.0 0.0001905850962454736 9.52925481227368e-05 9.52925481227368e-05 9.52925481227368e-05 0.0005717552887364208 0.0001905850962454736 0.0 0.0 9.52925481227368e-05 9.52925481227368e-05 0.0 0.0001905850962454736 0.0001905850962454736 9.52925481227368e-05 9.52925481227368e-05 9.52925481227368e-05 9.52925481227368e-05 0.0 0.0 0.0 0.0 0.0001905850962454736 0.0 0.0 0.0 9.52925481227368e-05 9.52925481227368e-05 9.52925481227368e-05 0.0 9.52925481227368e-05 0.0 0.0001905850962454736 9.52925481227368e-05 0.0 0.0 0.0 0.0 0.0 0.0 0.0 0.0 0.0 0.0 0.0 9.52925481227368e-05 0.0 0.0 9.52925481227368e-05 9.52925481227368e-05 0.0 0.0 0.0 0.0 0.0 0.0 0.0 0.0 0.0 0.0 0.0 0.0 9.52925481227368e-05 9.52925481227368e-05 0.0 0.0 0.0 0.0 0.0 0.0 0.0 0.0 0.0 0.0 0.0 9.52925481227368e-05 0.0 0.0 0.0 9.52925481227368e-05 9.52925481227368e-05 0.0 0.0 0.0 0.0 0.0 0.0 0.0 0.0 0.0 0.0 0.0 0.0 0.0 0.0 0.0 0.0 0.0 0.0 0.0 0.0 0.0 0.0 0.0 0.0 0.0 0.0 0.0 0.0 0.0 0.0007619047619047619 0.002380952380952381 0.06095238095238095 0.2693333333333333 0.18676190476190477 0.08971428571428572 0.05333333333333334 0.047142857142857146 0.03685714285714286 0.026 0.026571428571428572 0.025714285714285714 0.02419047619047619 0.020285714285714285 0.01876190476190476 0.01685714285714286 0.013238095238095238 0.014857142857142857 0.012095238095238095 0.011428571428571429 0.007333333333333333 0.005142857142857143 0.004190476190476191 0.004095238095238095 0.003619047619047619 0.0029523809523809524 0.0026666666666666666 0.0013333333333333333 0.0009523809523809524 0.001142857142857143 0.0006666666666666666 0.0009523809523809524 0.00019047619047619048 0.0005714285714285715 0.0004761904761904762 0.00028571428571428574 0.0005714285714285715 0.00038095238095238096 0.00019047619047619048 9.523809523809524e-05 9.523809523809524e-05 9.523809523809524e-05 9.523809523809524e-05 0.00028571428571428574 0.00019047619047619048 0.00019047619047619048 0.0 0.00038095238095238096 0.0 0.00019047619047619048 0.00019047619047619048 0.00019047619047619048 0.0 0.0 0.0 9.523809523809524e-05 0.0 9.523809523809524e-05 0.00019047619047619048 9.523809523809524e-05 0.00019047619047619048 0.0 0.00028571428571428574 0.0 9.523809523809524e-05 0.0 0.00028571428571428574 0.0 9.523809523809524e-05 0.0 0.0 0.00019047619047619048 9.523809523809524e-05 0.0 0.0 9.523809523809524e-05 0.0 0.0 0.0 9.523809523809524e-05 9.523809523809524e-05 0.0 0.0 0.0 0.0 0.0 0.0 0.0 0.0 0.0 0.0 9.523809523809524e-05 0.0 0.0 9.523809523809524e-05 0.0 9.523809523809524e-05 0.0 9.523809523809524e-05 0.0 9.523809523809524e-05 9.523809523809524e-05 0.0 9.523809523809524e-05 0.0 0.0 0.0 0.0 0.0 0.0 0.0 0.0 0.0 0.0 0.0 0.0 0.0 9.523809523809524e-05 0.0 9.523809523809524e-05 0.0 0.0 9.523809523809524e-05 0.0 0.0 0.0 0.0 0.0 0.0 9.523809523809524e-05 0.0 0.0 0.0 0.0 0.0 0.0 0.0 0.0 0.0 0.0 0.0 0.0 0.0 0.0 0.0 0.0 0.0 0.0 0.0 0.0 0.0 0.0 0.0 0.0 0.0 0.0 0.0 0.0 0.0 0.0 0.0 0.0 0.0 0.0 0.0 0.0 0.0 0.0 0.0 0.0 0.0 0.0 0.0 0.0 0.0010483179262365386 0.003812065186314686 0.14247593633851138 0.24683122081387593 0.14628800152482607 0.08148289335747641 0.04746021156961784 0.032021347565043365 0.029638806823596684 0.025350233488992662 0.02306299437720385 0.02239588296959878 0.023634804155151054 0.022872391117888115 0.020299247117125704 0.017821404746021157 0.014295244448680073 0.013628133041075002 0.01467645096731154 0.01467645096731154 0.008958353187839512 0.007624130372629372 0.005050986371866959 0.004669779853235491 0.0034308586676832175 0.004574478223577623 0.002573144000762413 0.0022872391117888117 0.0011436195558944058 0.0011436195558944058 0.001906032593157343 0.0005718097779472029 0.00066711140760507 0.0004765081482893357 0.0008577146669208044 0.0004765081482893357 0.0005718097779472029 0.0001906032593157343 0.0005718097779472029 0.0005718097779472029 0.0003812065186314686 0.0003812065186314686 0.0003812065186314686 0.0001906032593157343 0.0001906032593157343 0.0001906032593157343 0.0003812065186314686 0.00028590488897360146 0.00066711140760507 9.530162965786715e-05 9.530162965786715e-05 9.530162965786715e-05 0.0 0.0 0.00028590488897360146 0.00028590488897360146 0.0003812065186314686 9.530162965786715e-05 0.00028590488897360146 0.0 9.530162965786715e-05 9.530162965786715e-05 9.530162965786715e-05 0.0 0.0 0.0 0.0001906032593157343 9.530162965786715e-05 0.0001906032593157343 9.530162965786715e-05 0.00028590488897360146 0.0 0.0 9.530162965786715e-05 0.0 0.00028590488897360146 0.0 0.0 0.0 0.0 0.0 0.0001906032593157343 0.0 0.0 9.530162965786715e-05 9.530162965786715e-05 9.530162965786715e-05 0.0 9.530162965786715e-05 0.0 9.530162965786715e-05 0.0003812065186314686 0.0 0.0 0.0 9.530162965786715e-05 0.0 9.530162965786715e-05 0.0 0.0 9.530162965786715e-05 0.0 0.0 9.530162965786715e-05 0.0 0.0 0.0 0.0 0.0 0.0 0.0 0.0 0.0 0.0 9.530162965786715e-05 0.0 0.0 0.0 0.0 9.530162965786715e-05 0.0 0.0 0.0 0.0 0.0 0.0 0.0 0.0 0.0 0.0 0.0 0.0 0.0 9.530162965786715e-05 0.0 0.0 0.0 0.0 0.0 0.0 0.0 0.0 0.0 0.0 0.0 0.0 0.0 0.0 0.0 0.0 0.0 0.0 0.0 0.0 0.0 0.0 0.0 0.0 0.0 0.0 0.0 0.0 0.0 0.0 0.0 0.0 0.0 0.0 0.0 0.0 0.0 0.0 0.0 0.0003811701924909472 0.0008576329331046312 0.06718124642652945 0.2629121402706308 0.18572517629121402 0.08614446350295407 0.04840861444635029 0.035067657709167144 0.02715837621497999 0.03163712597674862 0.027825424051839145 0.022298456260720412 0.022870211549456832 0.018963217076424625 0.020964360587002098 0.015627977892128834 0.01429388221841052 0.012864493996569469 0.010958643034114732 0.012006861063464836 0.010101010101010102 0.009433962264150943 0.008385744234800839 0.0072422336573279966 0.006098723079855155 0.004097579569277683 0.0036211168286639983 0.0030493615399275775 0.0026681913474366306 0.0024776062511911567 0.0026681913474366306 0.0015246807699637887 0.0015246807699637887 0.0008576329331046312 0.0011435105774728416 0.000952925481227368 0.000952925481227368 0.0007623403849818944 0.0008576329331046312 0.0005717552887364208 0.0005717552887364208 0.0005717552887364208 0.0001905850962454736 0.0 0.0003811701924909472 0.0001905850962454736 0.0001905850962454736 9.52925481227368e-05 9.52925481227368e-05 9.52925481227368e-05 0.0002858776443682104 9.52925481227368e-05 9.52925481227368e-05 0.0002858776443682104 9.52925481227368e-05 9.52925481227368e-05 9.52925481227368e-05 0.0 0.0002858776443682104 0.0001905850962454736 9.52925481227368e-05 9.52925481227368e-05 9.52925481227368e-05 0.0 9.52925481227368e-05 0.0001905850962454736 9.52925481227368e-05 0.0001905850962454736 0.0 9.52925481227368e-05 0.0001905850962454736 0.0 0.0 0.0 0.0 9.52925481227368e-05 9.52925481227368e-05 0.0 0.0 0.0 0.0 0.0 9.52925481227368e-05 0.0 0.0 9.52925481227368e-05 0.0001905850962454736 9.52925481227368e-05 9.52925481227368e-05 9.52925481227368e-05 9.52925481227368e-05 0.0 0.0 9.52925481227368e-05 0.0 9.52925481227368e-05 9.52925481227368e-05 0.0 0.0 0.0 9.52925481227368e-05 9.52925481227368e-05 0.0 0.0 0.0 0.0 0.0 0.0 0.0 0.0 0.0 0.0 9.52925481227368e-05 9.52925481227368e-05 0.0 9.52925481227368e-05 0.0 0.0 0.0 0.0 0.0 0.0 0.0 0.0 0.0 0.0 0.0 0.0 0.0 0.0 0.0 0.0 0.0 0.0 9.52925481227368e-05 0.0 0.0 0.0 0.0 0.0 0.0 0.0 0.0 0.0 0.0 0.0 0.0 0.0 0.0 0.0 0.0 0.0 0.0 0.0 0.0 0.0 0.0 0.0 0.0 0.0 0.0 0.0 0.0 0.0 0.04349518883141443 0.35474720507258467 0.2428388675677179 0.12592468991601313 0.09099504978029924 0.05673285499749708 0.029979420434951887 0.017409199621780967 0.012014016352411146 0.008009344234940765 0.003949051671394405 0.002947883642026809 0.0021691973969631237 0.0016686133822793258 0.0006118249068357528 0.000945547583291618 0.0005005840146837978 0.0005005840146837978 0.0003337226764558652 0.00027810223037988765 0.00027810223037988765 0.0004449635686078202 0.00011124089215195505 0.0002224817843039101 0.0002224817843039101 0.0001668613382279326 0.0001668613382279326 0.0 0.00011124089215195505 0.0 0.0001668613382279326 0.0001668613382279326 5.562044607597753e-05 5.562044607597753e-05 0.0 0.0 0.00011124089215195505 0.0 5.562044607597753e-05 5.562044607597753e-05 0.0001668613382279326 0.0 0.0 0.0 0.0 0.0 5.562044607597753e-05 5.562044607597753e-05 0.0 5.562044607597753e-05 0.0 0.0 0.0 0.0 0.0 0.0 0.0 0.0 0.0 0.0 0.0 0.0 0.0 0.0 0.0 0.0 0.0 0.0 0.0 0.0 0.0 0.0 0.0 0.0 0.0 0.0 0.0 5.562044607597753e-05 0.0 0.0 0.0 0.0 0.0 5.562044607597753e-05 0.0 0.0 0.0 0.0 5.562044607597753e-05 5.562044607597753e-05 0.0 0.0 0.0 0.0 0.0 0.0 0.0 5.562044607597753e-05 0.0 5.562044607597753e-05 5.562044607597753e-05 0.0 0.0 0.0 0.0 0.0 0.0 0.0 0.0 0.00011124089215195505 0.0 5.562044607597753e-05 0.0 0.0 5.562044607597753e-05 0.0 0.0 0.0 0.0 5.562044607597753e-05 5.562044607597753e-05 0.0 0.0 0.0 0.00011124089215195505 0.0 0.0 5.562044607597753e-05 5.562044607597753e-05 0.0 5.562044607597753e-05 0.00011124089215195505 0.0 0.0 0.0 0.0 5.562044607597753e-05 5.562044607597753e-05 0.0 0.0 0.0 0.0 0.0 0.0 0.0 0.0 0.0 0.0 0.0 0.0 0.0 0.0 0.0 0.0 0.0 0.0 0.0 0.0 0.0 0.0 0.0 0.0 0.0 0.0 0.0 0.0 0.0 0.0 0.0 0.0 0.0 0.0 0.0 0.0053156146179402 0.027906976744186046 0.046511627906976744 0.29833887043189367 0.30199335548172757 0.12458471760797342 0.08970099667774087 0.05514950166112957 0.023920265780730896 0.014617940199335547 0.004651162790697674 0.0026578073089701 0.0016611295681063123 0.000664451827242525 0.0003322259136212625 0.0003322259136212625 0.0 0.0 0.0003322259136212625 0.0 0.0003322259136212625 0.0 0.0 0.0 0.0 0.0 0.0 0.0 0.0 0.0 0.0 0.0 0.0 0.0 0.0 0.0 0.0 0.0 0.0 0.0 0.0 0.0 0.0 0.0 0.0 0.0 0.0 0.0 0.0 0.0 0.0 0.0 0.0 0.0 0.0 0.0 0.0 0.0 0.0 0.0 0.0 0.0 0.0 0.0 0.0 0.0 0.0 0.0 0.0 0.0 0.0 0.0 0.0 0.0 0.0 0.0 0.0 0.0 0.0 0.0 0.0 0.0 0.0 0.0 0.0 0.0 0.0 0.0 0.0 0.0 0.0 0.0 0.0 0.0 0.0 0.0 0.0 0.0 0.0 0.0 0.0 0.0 0.0 0.0 0.0 0.0 0.0 0.0 0.0 0.0 0.0 0.0 0.0 0.0 0.0 0.0 0.0 0.0 0.0 0.0 0.0 0.0 0.0 0.0 0.0 0.0003322259136212625 0.0 0.0 0.0 0.0 0.0 0.0 0.0 0.000664451827242525 0.0 0.0 0.0 0.0 0.0 0.0 0.0 0.0 0.0 0.0 0.0 0.0 0.0 0.0 0.0 0.0 0.0 0.0 0.0 0.0 0.0 0.0 0.0 0.0 0.0 0.0 0.0 0.0 0.0 0.0 0.0 0.0 0.0 0.0 0.0 0.0 0.0 0.0 0.0 0.0003812791916881136 0.0033361929272709943 0.029644457153750834 0.22695643885234965 0.29711181012296256 0.13983414355161566 0.07635115813554476 0.06081403107425412 0.042321990277380615 0.027928700791154323 0.02097035554284625 0.015251167667524546 0.012963492517395862 0.009531979792202841 0.007053665046230102 0.004956629491945477 0.0042893909064912784 0.003908111714803164 0.002764274139738824 0.0024783147459727386 0.0020017157563625965 0.0009531979792202841 0.001143837575064341 0.00028595939376608524 0.0014297969688304261 0.0009531979792202841 0.0003812791916881136 0.0001906395958440568 0.0007625583833762272 0.0003812791916881136 9.53197979220284e-05 0.0001906395958440568 0.0001906395958440568 0.0001906395958440568 0.0001906395958440568 9.53197979220284e-05 0.0 0.0 0.0001906395958440568 0.0 0.0 0.0 0.0 0.0 0.0 9.53197979220284e-05 9.53197979220284e-05 0.0 0.0 0.0 0.0 0.0 0.0 0.0 0.0 0.0 9.53197979220284e-05 0.0 0.0 0.0 0.0 9.53197979220284e-05 0.0 0.0 0.0 0.0 9.53197979220284e-05 0.0 0.0 0.0 0.0 0.0 0.0 0.0 0.0 0.0 0.0 0.0 0.0 9.53197979220284e-05 0.0 0.0 0.0 0.0 0.0 0.0 0.0 0.0 0.0 0.0 0.0 0.0 9.53197979220284e-05 0.0 0.0 0.0 0.0 0.0 0.0 0.0 0.0 0.0 0.0 0.0 0.0 0.0 0.0 0.0 0.0 0.0 0.0 0.0 0.0 0.0 0.0 9.53197979220284e-05 0.0 0.0 0.0 0.0 0.0 0.0 9.53197979220284e-05 0.0 9.53197979220284e-05 0.0 9.53197979220284e-05 0.0 0.0 0.0 0.0 0.0 0.0 9.53197979220284e-05 9.53197979220284e-05 0.0 0.0001906395958440568 9.53197979220284e-05 0.0 0.0 0.0 0.0 0.0 0.0 0.0 0.0 0.0 0.0 0.0 0.0 0.0 0.0 0.0 0.0 0.0 0.0 0.0 0.0 0.0 0.0 0.0 0.0 0.0 0.0 0.0 0.0 0.0 0.0 0.0 0.0 0.0 0.0 0.0 0.0 0.0020964360587002098 0.023441966838193252 0.18572517629121402 0.31808652563369544 0.15399275776634266 0.08223746902992186 0.062226033924147134 0.042214598818372404 0.03011244520678483 0.023727844482561464 0.018010291595197257 0.010005717552887363 0.01162569087097389 0.009338669716028206 0.006289308176100629 0.003811701924909472 0.0032399466361730514 0.00238231370306842 0.0021917286068229465 0.0013340956737183153 0.0010482180293501049 0.0010482180293501049 0.0005717552887364208 0.0006670478368591576 0.0005717552887364208 0.0003811701924909472 9.52925481227368e-05 0.0003811701924909472 9.52925481227368e-05 0.0 0.0001905850962454736 0.0 9.52925481227368e-05 0.0 0.0 0.0002858776443682104 0.0 0.0001905850962454736 9.52925481227368e-05 0.0001905850962454736 0.0001905850962454736 9.52925481227368e-05 9.52925481227368e-05 0.0 0.0 9.52925481227368e-05 0.0 0.0 0.0 0.0 0.0 0.0 0.0 0.0 0.0 0.0 0.0 0.0 0.0 0.0 0.0 0.0 0.0 0.0 0.0 0.0 0.0 0.0 0.0 0.0 0.0 0.0 0.0 0.0 0.0 0.0 0.0 9.52925481227368e-05 9.52925481227368e-05 0.0 0.0 0.0 0.0 0.0 0.0 9.52925481227368e-05 0.0 0.0 0.0 0.0 0.0 0.0 0.0 0.0 0.0 0.0 0.0 0.0 0.0 0.0 0.0 0.0 0.0 0.0 0.0 0.0 0.0 0.0 0.0 0.0 0.0 0.0 0.0 9.52925481227368e-05 0.0 0.0 0.0 0.0 0.0 0.0 0.0 9.52925481227368e-05 0.0 9.52925481227368e-05 9.52925481227368e-05 0.0 9.52925481227368e-05 9.52925481227368e-05 0.0 0.0 0.0 0.0001905850962454736 0.0 0.0 9.52925481227368e-05 0.0 0.0 0.0 0.0001905850962454736 9.52925481227368e-05 9.52925481227368e-05 0.0 0.0 0.0 0.0 0.0 0.0 0.0 0.0 0.0 0.0 0.0 0.0 0.0 0.0 0.0 0.0 0.0 0.0 0.0 0.0 0.0 0.0 0.0 0.0 0.0 0.0 0.0 0.0 0.0 0.0 0.0 0.00019051247856734617 0.0015240998285387694 0.010097161364069346 0.18336826062107067 0.26700323871213566 0.15841112592874834 0.0930653457801486 0.06706039245570584 0.06058296818441608 0.037626214517050866 0.02848161554581825 0.020384835206706038 0.014859973328253 0.009525623928367309 0.010573442560487712 0.007239474185559154 0.005620118117736711 0.0054296056391693655 0.00371499333206325 0.0019051247856734616 0.0020956372642408076 0.0018098685463897885 0.0008573061535530577 0.0013335873499714232 0.0004762811964183654 0.0004762811964183654 0.0005715374357020385 0.0005715374357020385 0.0005715374357020385 0.0004762811964183654 0.00028576871785101923 0.0 0.00038102495713469235 0.00038102495713469235 0.00019051247856734617 0.00028576871785101923 0.00019051247856734617 0.0 0.00019051247856734617 9.525623928367309e-05 0.0 0.0 0.0 0.0 0.0 9.525623928367309e-05 0.0 9.525623928367309e-05 9.525623928367309e-05 0.0 0.0 0.0 0.0 0.0 0.0 0.00019051247856734617 0.0 0.0 0.0 0.0 0.0 0.0 0.0 0.0 0.0 0.0 9.525623928367309e-05 0.0 0.0 0.0 0.0 0.0 0.0 0.0 0.0 0.0 0.0 0.0 0.0 0.0 9.525623928367309e-05 0.0 0.0 9.525623928367309e-05 0.0 0.0 0.0 0.0 0.0 0.0 9.525623928367309e-05 0.0 0.0 0.0 0.0 0.0 0.0 9.525623928367309e-05 0.0 0.0 0.0 0.0 0.0 0.0 0.0 0.0 0.0 0.0 0.0 0.0 0.0 0.0 0.0 0.0 0.0 0.0 0.0 0.0 0.0 0.0 0.0 0.0 9.525623928367309e-05 0.0 0.00019051247856734617 9.525623928367309e-05 0.0 0.0 0.0 0.0 0.00019051247856734617 0.0 0.0 0.00019051247856734617 0.0 0.0 9.525623928367309e-05 0.0 9.525623928367309e-05 9.525623928367309e-05 0.0 0.0 0.0 0.0 9.525623928367309e-05 0.0 0.0 0.0 0.0 0.0 0.0 0.0 0.0 0.0 0.0 0.0 0.0 0.0 0.0 0.0 0.0 0.0 0.0 0.0 0.0 0.0 0.0 0.0 0.0 0.0 0.0 0.0 0.0 0.0 0.0005717008099094807 0.0007622677465459743 0.054025726536445925 0.22448785135778943 0.24430681276798474 0.1291090995712244 0.07756074321105288 0.05116722248689852 0.04249642686993806 0.0354454502143878 0.030871843735111957 0.02096236303001429 0.017246307765602667 0.015150071462601238 0.012958551691281562 0.010195331110052407 0.006669842782277275 0.006669842782277275 0.004573606479275846 0.00266793711291091 0.001715102429728442 0.0016198189614101952 0.0014292520247737017 0.0009528346831824678 0.0007622677465459743 0.0004764173415912339 0.0005717008099094807 9.528346831824679e-05 0.00038113387327298715 0.00019056693663649358 0.00019056693663649358 9.528346831824679e-05 0.00019056693663649358 0.00019056693663649358 9.528346831824679e-05 0.0 0.00019056693663649358 0.0 0.0 0.0 0.00019056693663649358 9.528346831824679e-05 9.528346831824679e-05 9.528346831824679e-05 0.0 0.0 0.0 0.0 0.0 9.528346831824679e-05 0.0 0.0 9.528346831824679e-05 0.0 0.0 0.0 0.0 0.0 0.0 0.0 0.0 0.0 0.0 0.0 0.0 0.0 0.0 0.0 9.528346831824679e-05 0.0 0.0 0.0 0.0 0.0 0.0 0.0 0.0 0.0 0.0 9.528346831824679e-05 0.0 9.528346831824679e-05 9.528346831824679e-05 0.0 0.0 9.528346831824679e-05 0.0 0.0 0.0 0.0 9.528346831824679e-05 0.00019056693663649358 0.0 0.0 0.0 0.00019056693663649358 0.0 0.0 0.0 0.0 0.0 0.0 0.0 0.0 0.0 0.0 0.0 0.0 0.0 0.0 0.0 0.0 0.0 0.0 0.0 0.0 0.0 0.0 0.0 0.0 0.0 9.528346831824679e-05 9.528346831824679e-05 0.0 0.0 0.0 0.0 0.0 9.528346831824679e-05 0.0 0.0 0.00019056693663649358 9.528346831824679e-05 9.528346831824679e-05 0.00019056693663649358 9.528346831824679e-05 9.528346831824679e-05 0.0 9.528346831824679e-05 9.528346831824679e-05 0.0 9.528346831824679e-05 0.0 0.0 0.0 0.0 0.0 0.0 0.0 0.0 0.0 0.0 0.0 0.0 0.0 0.0 0.0 0.0 0.0 0.0 0.0 0.0 0.0 0.0 0.0 0.0 0.0010562010117293901 0.20323531046750792 0.32264161431986216 0.14842403691144587 0.08810940018900439 0.055144810717660794 0.06731891711601534 0.0452498749235644 0.023625548946578465 0.014786814164211463 0.009450219578631385 0.005503363166379454 0.003113013508255045 0.0021679915503919063 0.0011673800655956417 0.0012229695925287676 0.0006670743231975096 0.0006114847962643838 0.0007226638501306354 0.0002223581077325032 0.0007226638501306354 0.0001667685807993774 0.0002223581077325032 0.000555895269331258 0.0002223581077325032 0.0001111790538662516 5.55895269331258e-05 0.0001667685807993774 0.0004447162154650064 5.55895269331258e-05 0.0002223581077325032 0.0001111790538662516 0.0002223581077325032 0.000277947634665629 0.000277947634665629 0.0001667685807993774 0.0001111790538662516 0.0001111790538662516 0.0001667685807993774 0.0001667685807993774 0.0001111790538662516 5.55895269331258e-05 5.55895269331258e-05 5.55895269331258e-05 0.0 0.0001667685807993774 0.0 0.0001111790538662516 0.0 0.0 5.55895269331258e-05 5.55895269331258e-05 5.55895269331258e-05 0.0 0.0 5.55895269331258e-05 5.55895269331258e-05 0.0 0.0 0.0 0.0 5.55895269331258e-05 0.0 5.55895269331258e-05 0.0 0.0 0.0 0.0 5.55895269331258e-05 0.0 0.0 0.0 0.0 0.0 0.0 0.0 0.0 0.0 0.0 0.0 0.0 0.0 0.0 0.0 0.0 0.0 0.0 0.0 0.0 0.0 0.0 0.0 0.0 0.0 0.0 0.0 0.0 0.0 0.0 0.0 0.0 0.0 0.0 0.0 0.0 0.0 0.0 0.0 0.0 0.0 0.0 0.0 0.0 0.0 0.0 0.0 0.0 0.0 0.0 0.0 0.0 0.0 0.0 0.0 0.0 0.0 0.0 0.0 0.0 0.0 0.0 0.0 0.0 0.0 0.0 0.0 0.0 0.0 0.0 0.0 0.0 0.0 0.0 0.0 0.0 0.0 0.0 0.0 0.0 0.0 0.0 0.0 0.0 0.0 0.0 0.0 0.0 0.0 0.0 0.0 0.0 0.0 0.0 0.0 0.0 0.0 0.0 0.0 0.0 0.0 0.0 0.0 0.0 0.0 0.02725157859754071 0.030574941841143236 0.17879694250581588 0.4160850780990362 0.1738118976404121 0.09172482552342971 0.04652708541043536 0.018943170488534396 0.008640744433366567 0.004320372216683284 0.0006646726487205051 0.0 0.0006646726487205051 0.0 0.00033233632436025255 0.0 0.0 0.0 0.0 0.00033233632436025255 0.0 0.0 0.0 0.00033233632436025255 0.0 0.0 0.0 0.0 0.0 0.0 0.0 0.0 0.0 0.0 0.0 0.00033233632436025255 0.0 0.0 0.0 0.0 0.00033233632436025255 0.0 0.0 0.00033233632436025255 0.0 0.0 0.0 0.0 0.0 0.0 0.0 0.0 0.0 0.0 0.0 0.0 0.0 0.0 0.0 0.0 0.0 0.0 0.0 0.0 0.0 0.0 0.0 0.0 0.0 0.0 0.0 0.0 0.0 0.0 0.0 0.0 0.0 0.0 0.0 0.0 0.0 0.0 0.0 0.0 0.0 0.0 0.0 0.0 0.0 0.0 0.0 0.0 0.0 0.0 0.0 0.0 0.0 0.0 0.0 0.0 0.0 0.0 0.0 0.0 0.0 0.0 0.0 0.0 0.0 0.0 0.0 0.0 0.0 0.0 0.0 0.0 0.0 0.0 0.0 0.0 0.0 0.0 0.0 0.0 0.0 0.0 0.0 0.0 0.0 0.0 0.0 0.0 0.0 0.0 0.0 0.0 0.0 0.0 0.0 0.0 0.0 0.0 0.0 0.0 0.0 0.0 0.0 0.0 0.0 0.0 0.0 0.0 0.0 0.0 0.0 0.0 0.0 0.0 0.0 0.0 0.0 0.0 0.0 0.0 0.0 0.0 0.0 0.0 0.0 0.0 0.0 0.0 0.0 0.0 0.0 0.0010476190476190477 0.009047619047619047 0.021238095238095236 0.03990476190476191 0.07771428571428571 0.12409523809523809 0.13952380952380952 0.1316190476190476 0.09790476190476191 0.08123809523809523 0.04876190476190476 0.036 0.028 0.020285714285714285 0.01685714285714286 0.013904761904761904 0.007904761904761904 0.005619047619047619 0.004190476190476191 0.004095238095238095 0.0032380952380952383 0.003142857142857143 0.005047619047619047 0.004095238095238095 0.0044761904761904765 0.004190476190476191 0.003619047619047619 0.004285714285714286 0.003904761904761905 0.004761904761904762 0.0044761904761904765 0.005714285714285714 0.005333333333333333 0.003619047619047619 0.0032380952380952383 0.0033333333333333335 0.002380952380952381 0.0026666666666666666 0.0025714285714285713 0.0018095238095238095 0.0019047619047619048 0.002380952380952381 0.0017142857142857142 0.0013333333333333333 0.0004761904761904762 0.00038095238095238096 0.0006666666666666666 0.00038095238095238096 0.0004761904761904762 0.0004761904761904762 0.0004761904761904762 0.0007619047619047619 0.0006666666666666666 0.00038095238095238096 0.0004761904761904762 0.0005714285714285715 0.00028571428571428574 0.00028571428571428574 0.00038095238095238096 0.00019047619047619048 0.0 0.0 0.00019047619047619048 9.523809523809524e-05 9.523809523809524e-05 0.0 9.523809523809524e-05 0.0 0.0 0.0 0.0 0.0 0.0 0.0 0.0 0.0 0.0 0.0 0.0 0.0 0.0 0.0 0.0 0.0 0.0 0.0 0.0 0.0 0.0 0.0 0.0 0.0 0.0 0.0 0.0 0.0 0.0 0.0 0.0 0.0 0.0 0.0 0.0 0.0 0.0 0.0 0.0 0.0 0.0 0.0 0.0 0.0 0.0 0.0 0.0 0.0 0.0 0.0 0.0 0.0 0.0 0.0 0.0 0.0 0.0 0.0 0.0 0.0 0.0 0.0 0.0 0.0 0.0 0.0 0.0 0.0 0.0 0.0 0.0 0.0 0.0 0.0 0.0 0.0 0.0 0.0 0.0 0.0 0.0 0.0 0.0 0.0 0.0 0.0 0.0 0.0 0.0 0.0 0.0 0.0 0.0 0.0 0.0 0.0 0.0 0.0 0.0 0.0 0.0 0.0 0.0 9.525623928367309e-05 0.0 0.0026671746999428463 0.01857496666031625 0.03705467708134883 0.06391693655934463 0.11859401790817299 0.14250333396837492 0.10744903791198324 0.11440274337969136 0.0835397218517813 0.06601257382358544 0.04496094494189369 0.030196227852924366 0.022670984949514195 0.019051247856734618 0.013145361021146886 0.009144598971232615 0.007334730424842827 0.005143836921318346 0.005048580682034673 0.0030481996570775388 0.003619737092779577 0.004191274528481615 0.004858068203467327 0.004477043246332635 0.004762811964183654 0.005048580682034673 0.004858068203467327 0.005334349399885693 0.004381787007048962 0.004381787007048962 0.003619737092779577 0.003905505810630596 0.0031434558963612117 0.004572299485616308 0.003905505810630596 0.0031434558963612117 0.0038102495713469233 0.0017146123071061154 0.0014288435892550963 0.0007620499142693847 0.0007620499142693847 0.00123833111068775 0.0006667936749857116 0.0007620499142693847 0.00028576871785101923 9.525623928367309e-05 0.00038102495713469235 0.00019051247856734617 0.0004762811964183654 0.0005715374357020385 0.0006667936749857116 0.00028576871785101923 0.00019051247856734617 0.0004762811964183654 0.00019051247856734617 0.0005715374357020385 0.00038102495713469235 0.00028576871785101923 0.00028576871785101923 0.00038102495713469235 0.00019051247856734617 9.525623928367309e-05 0.0 0.0 9.525623928367309e-05 0.0 0.0 0.0 0.0 0.0 0.0 0.0 0.0 0.0 0.0 0.0 0.0 0.0 0.0 0.0 0.0 0.0 0.0 0.0 0.0 0.0 0.0 0.0 0.0 0.0 0.0 0.0 0.0 0.0 0.0 0.0 0.0 0.0 0.0 0.0 0.0 0.0 0.0 0.0 0.0 0.0 0.0 0.0 0.0 0.0 0.0 0.0 0.0 0.0 0.0 0.0 0.0 0.0 0.0 0.0 0.0 0.0 0.0 0.0 0.0 0.0 0.0 0.0 0.0 0.0 0.0 0.0 0.0 0.0 0.0 0.0 0.0 0.0 0.0 0.0 0.0 0.0 0.0 0.0 0.0 0.0 0.0 0.0 0.0 0.0 0.0 0.0 0.0 0.0 0.0 0.0 0.0 0.0 0.0 0.0 0.0 0.0 0.0 0.0 0.0 0.0 0.0 0.0 0.0 0.0 0.0 0.0 0.0 0.003142857142857143 0.023523809523809523 0.048 0.06561904761904762 0.12685714285714286 0.112 0.11971428571428572 0.11438095238095237 0.07638095238095238 0.05647619047619048 0.043333333333333335 0.032952380952380955 0.024285714285714285 0.018666666666666668 0.017142857142857144 0.010380952380952381 0.008 0.005047619047619047 0.0033333333333333335 0.0038095238095238095 0.0029523809523809524 0.004190476190476191 0.006095238095238095 0.004952380952380952 0.005333333333333333 0.004761904761904762 0.004952380952380952 0.0054285714285714284 0.004285714285714286 0.004571428571428572 0.004380952380952381 0.0030476190476190477 0.0058095238095238096 0.004952380952380952 0.006095238095238095 0.004952380952380952 0.0025714285714285713 0.0025714285714285713 0.0014285714285714286 0.0008571428571428571 0.0006666666666666666 0.00038095238095238096 0.00019047619047619048 9.523809523809524e-05 0.00028571428571428574 9.523809523809524e-05 9.523809523809524e-05 0.00028571428571428574 0.0 9.523809523809524e-05 9.523809523809524e-05 0.00028571428571428574 0.0 9.523809523809524e-05 0.0 0.0 0.0 0.0 0.0 0.0 0.0 0.0 0.0 0.0 0.0 0.0 0.0 0.0 0.0 0.0 0.0 0.0 0.0 0.0 0.0 0.0 0.0 0.0 0.0 0.0 0.0 0.0 0.0 0.0 0.0 0.0 0.0 0.0 0.0 0.0 0.0 0.0 0.0 0.0 0.0 0.0 0.0 0.0 0.0 0.0 0.0 0.0 0.0 0.0 0.0 9.523809523809524e-05 0.0 0.0 0.0 0.0 0.0 0.0 0.0 0.0 0.0 0.0 0.0 0.0 0.0 0.0 0.0 0.0 0.0 0.0 0.0 0.0 0.0 0.0 0.0 0.0 0.0 0.0 0.0 0.0 0.0 0.0 0.0 0.0 0.0 0.0 0.0 0.0 0.0 0.0 0.0 0.0 0.0 0.0 0.0 0.0 0.0 0.0 0.0 0.0 0.0 0.0 0.0 0.0 0.0 0.0 0.0 0.0 0.0 0.0 0.0 0.0 0.0 0.0 0.0 0.0 0.0 0.0 0.0 0.0008572244975711972 0.022954567101628725 0.05133822268787504 0.11020097152109724 0.13477474045147156 0.1228688446518716 0.13210781979236116 0.08724640441946852 0.06753024097533099 0.05190970568625584 0.041337270216211065 0.02819316125345271 0.01904943327935994 0.01533479378988475 0.01219163729879036 0.00933422230688637 0.005619582817411182 0.006476807314982379 0.004667111153443185 0.005524335651014382 0.005238594151823983 0.003333650823887989 0.004286122487855986 0.0036193923230783886 0.003524145156681589 0.00314315649109439 0.0037146394894751883 0.0032384036574911895 0.00304790932469759 0.0032384036574911895 0.002762167825507191 0.0022859319935231927 0.0029526621583007904 0.0022859319935231927 0.004190875321459187 0.0051433469854271835 0.002762167825507191 0.00314315649109439 0.0023811791599199924 0.0016192018287455947 0.0008572244975711972 0.0004762358319839985 0.0004762358319839985 9.524716639679969e-05 0.0005714829983807982 0.0002857414991903991 0.0002857414991903991 0.00038098866558719876 0.0004762358319839985 0.0 9.524716639679969e-05 0.0 9.524716639679969e-05 0.0 0.0 9.524716639679969e-05 0.0 0.0 9.524716639679969e-05 9.524716639679969e-05 0.0 9.524716639679969e-05 0.0 0.0 9.524716639679969e-05 0.0 0.0 0.0 0.0 0.0 0.0 0.0 0.0 0.0 0.0 0.0 0.0 0.0 0.0 0.0 0.0 0.0 0.0 0.0 0.0 0.0 0.0 0.0 0.0 0.0 0.0 0.0 0.0 0.0 0.0 0.0 0.0 0.0 0.0 0.0 0.0 0.0 0.0 0.0 0.0 0.0 0.0 0.0 0.0 0.0 0.0 0.0 0.0 0.0 0.0 0.0 0.0 0.0 0.0 0.0 0.0 0.0 0.0 0.0 0.0 0.0 0.0 0.0 0.0 0.0 0.0 0.0 0.0 0.0 0.0 0.0 0.0 0.0 0.0 0.0 0.0 0.0 0.0 0.0 0.0 0.0 0.0 0.0 0.0 0.0 0.0 0.0 0.0 0.0 0.0 0.0 0.0 0.0 0.0 0.0 0.0 0.0 0.000556049822064057 0.09452846975088967 0.14418371886120995 0.020351423487544484 0.011009786476868327 0.12127446619217082 0.48103870106761565 0.08034919928825623 0.029804270462633453 0.009508451957295374 0.003447508896797153 0.0016681494661921709 0.00044483985765124553 0.000556049822064057 0.0 0.0001668149466192171 0.00022241992882562276 0.0001668149466192171 5.560498220640569e-05 5.560498220640569e-05 0.00022241992882562276 0.0 0.00011120996441281138 5.560498220640569e-05 0.0 0.00011120996441281138 5.560498220640569e-05 0.0 0.0 5.560498220640569e-05 0.0 0.0 0.0 0.0 0.0 0.0 0.0 0.0 0.0 0.0 0.0 0.0 0.0 0.0 0.0 0.0 0.0 0.0 0.0 0.0 0.0 0.0 0.0 0.0 0.0 0.0 0.0 0.0 0.0 0.0 0.0 0.0 0.0 0.0 0.0 0.0 0.0 0.0 0.0 0.0 0.0 0.0 0.0 0.0 0.0 0.0 0.0 0.0 0.0 0.0 0.0 0.0 0.0 0.0 0.0 0.0 0.0 0.0 0.0 0.0 0.0 0.0 0.0 0.0 0.0 0.0 0.0 0.0 0.0 0.0 0.0 0.0 0.0 0.0 0.0 0.0 0.0 0.0 0.0 0.0 0.0 0.0 0.0 0.0 0.0 0.0 0.0 0.0 0.0 0.0 0.0 0.0 0.0 0.0 0.0 0.0 0.0 0.0 0.0 0.0 0.0 0.0 0.0 0.0 0.0 0.0 0.0 0.0 0.0 0.0 0.0 0.0 0.0 0.0 0.0 0.0 0.0 0.0 0.0 0.0 0.0 0.0 0.0 0.0 0.0 0.0 0.0 0.0 0.0 0.0 0.0 0.0 0.0 0.0 0.0 0.0 0.0 0.0 0.0 0.0 0.0 0.0 0.0 0.0 0.0 0.0 0.0 0.0 0.020598006644518274 0.05548172757475083 0.04817275747508306 0.8089700996677741 0.05946843853820598 0.003654485049833887 0.002325581395348837 0.0003322259136212625 0.0003322259136212625 0.0 0.0 0.0 0.0 0.0 0.0 0.0 0.0 0.0 0.0 0.0 0.0 0.0003322259136212625 0.0003322259136212625 0.0 0.0 0.0 0.0 0.0 0.0 0.0 0.0 0.0 0.0 0.0 0.0 0.0 0.0 0.0 0.0 0.0 0.0 0.0 0.0 0.0 0.0 0.0 0.0 0.0 0.0 0.0 0.0 0.0 0.0 0.0 0.0 0.0 0.0 0.0 0.0 0.0 0.0 0.0 0.0 0.0 0.0 0.0 0.0 0.0 0.0 0.0 0.0 0.0 0.0 0.0 0.0 0.0 0.0 0.0 0.0 0.0 0.0 0.0 0.0 0.0 0.0 0.0 0.0 0.0 0.0 0.0 0.0 0.0 0.0 0.0 0.0 0.0 0.0 0.0 0.0 0.0 0.0 0.0 0.0 0.0 0.0 0.0 0.0 0.0 0.0 0.0 0.0 0.0 0.0 0.0 0.0 0.0 0.0 0.0 0.0 0.0 0.0 0.0 0.0 0.0 0.0 0.0 0.0 0.0 0.0 0.0 0.0 0.0 0.0 0.0 0.0 0.0 0.0 0.0 0.0 0.0 0.0 0.0 0.0 0.0 0.0 0.0 0.0 0.0 0.0 0.0 0.0 0.0 0.0 0.0 0.0 0.0 0.0 0.0 0.0 0.0 0.0 0.0 0.0 0.0 0.0 0.0 0.0 0.0 0.0 0.00019080328181644724 0.00028620492272467084 0.011639000190803281 0.018603319977103606 0.00553329517267697 0.009253959168097691 0.00658271322266743 0.4551612287731349 0.3736882274375119 0.075081091394772 0.018889524899828276 0.01106659034535394 0.003911467277237168 0.005056286968135852 0.0030528525090631558 0.0005724098454493417 0.0004770082045411181 0.00019080328181644724 9.540164090822362e-05 0.0 0.00019080328181644724 0.0 0.0 0.0 0.0 0.0 0.0 0.00019080328181644724 9.540164090822362e-05 0.0 0.00019080328181644724 0.0 0.0 0.0 0.0 0.0 0.0 0.0 0.0 0.0 0.0 0.0 0.0 0.0 0.0 0.0 0.0 0.0 0.0 0.0 0.0 0.0 0.0 0.0 0.0 0.0 0.0 0.0 0.0 0.0 0.0 0.0 0.0 0.0 0.0 0.0 0.0 0.0 0.0 0.0 0.0 0.0 0.0 0.0 0.0 0.0 0.0 0.0 0.0 0.0 0.0 0.0 0.0 0.0 0.0 0.0 0.0 0.0 0.0 0.0 0.0 0.0 0.0 0.0 0.0 0.0 0.0 0.0 0.0 0.0 0.0 0.0 0.0 0.0 0.0 0.0 0.0 0.0 0.0 0.0 0.0 0.0 0.0 0.0 0.0 0.0 0.0 0.0 0.0 0.0 0.0 0.0 0.0 0.0 0.0 0.0 0.0 0.0 0.0 0.0 0.0 0.0 0.0 0.0 0.0 0.0 0.0 0.0 0.0 0.0 0.0 0.0 0.0 0.0 0.0 0.0 0.0 0.0 0.0 0.0 0.0 0.0 0.0 0.0 0.0 0.0 0.0 0.0 0.0 0.0 0.0 0.0 0.0 0.0 0.0 0.0 0.0 0.0 0.0 0.0 0.0 0.0 0.0 9.525623928367309e-05 0.00038102495713469235 0.0029529434177938655 0.014097923413983617 0.012288054867593828 0.005048580682034673 0.004381787007048962 0.3115831586968946 0.44979996189750426 0.14917127071823205 0.02438559725662031 0.013240617260430559 0.0054296056391693655 0.0027624309392265192 0.002190893503524481 0.0007620499142693847 0.00028576871785101923 0.0 0.00028576871785101923 9.525623928367309e-05 0.00028576871785101923 0.0 9.525623928367309e-05 0.0 0.0 0.0 9.525623928367309e-05 0.0 0.00028576871785101923 0.0 0.0 0.0 0.0 0.0 0.0 0.0 0.0 0.0 0.0 0.0 0.0 0.0 0.0 0.0 0.0 0.0 0.0 0.0 0.0 0.0 0.0 0.0 0.0 0.0 0.0 0.0 0.0 0.0 0.0 0.0 0.0 0.0 0.0 0.0 0.0 0.0 0.0 0.0 0.0 0.0 0.0 0.0 0.0 0.0 0.0 0.0 0.0 0.0 0.0 0.0 0.0 0.0 0.0 0.0 0.0 0.0 0.0 0.0 0.0 0.0 0.0 0.0 0.0 0.0 0.0 0.0 0.0 0.0 0.0 0.0 0.0 0.0 0.0 0.0 0.0 0.0 0.0 0.0 0.0 0.0 0.0 0.0 0.0 0.0 0.0 0.0 0.0 0.0 0.0 0.0 0.0 0.0 0.0 0.0 0.0 0.0 0.0 0.0 0.0 0.0 0.0 0.0 0.0 0.0 0.0 0.0 0.0 0.0 0.0 0.0 0.0 0.0 0.0 0.0 0.0 0.0 0.0 0.0 0.0 0.0 0.0 0.0 0.0 0.0 0.0 0.0 0.0 0.0 0.0 0.0 0.0 0.0 0.0 0.0 0.0 0.0 0.0 0.0 0.0 0.0 0.0 0.0 0.0 0.0 9.523809523809524e-05 0.0 0.012952380952380953 0.002285714285714286 0.002285714285714286 0.002380952380952381 0.05561904761904762 0.664 0.19866666666666666 0.031142857142857142 0.012095238095238095 0.008285714285714285 0.0033333333333333335 0.004095238095238095 0.0019047619047619048 0.00019047619047619048 9.523809523809524e-05 0.0 9.523809523809524e-05 0.0 0.0 0.0 9.523809523809524e-05 9.523809523809524e-05 9.523809523809524e-05 9.523809523809524e-05 0.0 0.0 9.523809523809524e-05 0.0 0.0 0.0 0.0 0.0 0.0 0.0 0.0 0.0 0.0 0.0 0.0 0.0 0.0 0.0 0.0 0.0 0.0 0.0 0.0 0.0 0.0 0.0 0.0 0.0 0.0 0.0 0.0 0.0 0.0 0.0 0.0 0.0 0.0 0.0 0.0 0.0 0.0 0.0 0.0 0.0 0.0 0.0 0.0 0.0 0.0 0.0 0.0 0.0 0.0 0.0 0.0 0.0 0.0 0.0 0.0 0.0 0.0 0.0 0.0 0.0 0.0 0.0 0.0 0.0 0.0 0.0 0.0 0.0 0.0 0.0 0.0 0.0 0.0 0.0 0.0 0.0 0.0 0.0 0.0 0.0 0.0 0.0 0.0 0.0 0.0 0.0 0.0 0.0 0.0 0.0 0.0 0.0 0.0 0.0 0.0 0.0 0.0 0.0 0.0 0.0 0.0 0.0 0.0 0.0 0.0 0.0 0.0 0.0 0.0 0.0 0.0 0.0 0.0 0.0 0.0 0.0 0.0 0.0 0.0 0.0 0.0 0.0 0.0 0.0 0.0 0.0 0.0 0.0 0.0 0.0 0.0 0.0 0.0 0.0 0.0 0.0 0.0 0.0 0.0 0.0 0.0 0.0 0.0 0.0 0.0 0.008095238095238095 0.005523809523809524 0.0009523809523809524 0.002285714285714286 0.011714285714285714 0.6631428571428571 0.21314285714285713 0.050666666666666665 0.01780952380952381 0.011523809523809523 0.005619047619047619 0.0064761904761904765 0.002 0.0004761904761904762 0.0 0.0 0.0 0.0 0.0 0.0 0.0 9.523809523809524e-05 0.0 9.523809523809524e-05 0.0 0.00019047619047619048 0.0 9.523809523809524e-05 9.523809523809524e-05 0.0 0.0 0.0 0.0 0.0 0.0 0.0 0.0 0.0 0.0 0.0 0.0 0.0 0.0 0.0 0.0 0.0 0.0 0.0 0.0 0.0 0.0 0.0 0.0 0.0 0.0 0.0 0.0 0.0 0.0 0.0 0.0 0.0 0.0 0.0 0.0 0.0 0.0 0.0 0.0 0.0 0.0 0.0 0.0 0.0 0.0 0.0 0.0 0.0 0.0 0.0 0.0 0.0 0.0 0.0 0.0 0.0 0.0 0.0 0.0 0.0 0.0 0.0 0.0 0.0 0.0 0.0 0.0 0.0 0.0 0.0 0.0 0.0 0.0 0.0 0.0 0.0 0.0 0.0 0.0 0.0 0.0 0.0 0.0 0.0 0.0 0.0 0.0 0.0 0.0 0.0 0.0 0.0 0.0 0.0 0.0 0.0 0.0 0.0 0.0 0.0 0.0 0.0 0.0 0.0 0.0 0.0 0.0 0.0 0.0 0.0 0.0 0.0 0.0 0.0 0.0 0.0 0.0 0.0 0.0 0.0 0.0 0.0 0.0 0.0 0.0 0.0 0.0 0.0 0.0 0.0 0.0 0.0 0.0 0.0 0.0 0.0 0.0 0.0008341211143858088 0.0026135794917422008 0.09648000889729189 0.23127398098203858 0.04009342156481121 0.01862870488794973 0.011010398709892677 0.252293833064561 0.26808652616359896 0.04137240727353612 0.015959517321915143 0.005282767057776789 0.0033364844575432353 0.002557971417449814 0.001112161485847745 0.0016682422287716177 0.001112161485847745 0.0014458099316020686 0.0012233776344325196 0.0010009453372629706 0.000667296891508647 0.0005560807429238725 0.00038925652004671076 0.000444864594339098 0.000222432297169549 0.0001112161485847745 0.0001112161485847745 0.0 0.0 5.560807429238725e-05 0.0 0.0 0.0 0.0 0.0 0.0 0.0 0.0 0.0 0.0 0.0 0.0 0.0 0.0 0.0 0.0 0.0 0.0 0.0 0.0 0.0 0.0 0.0 0.0 0.0 0.0 0.0 0.0 0.0 0.0 0.0 0.0 0.0 0.0 0.0 0.0 0.0 0.0 0.0 0.0 0.0 0.0 0.0 0.0 0.0 0.0 0.0 0.0 0.0 0.0 0.0 0.0 0.0 0.0 0.0 0.0 0.0 0.0 0.0 0.0 0.0 0.0 0.0 0.0 5.560807429238725e-05 0.0 0.0 0.0 0.0 0.0 0.0 0.0 0.0 0.0 0.0 0.0 0.0 0.0 0.0 0.0 0.0 0.0 0.0 0.0 0.0 0.0 0.0 0.0 0.0 0.0 0.0 0.0 0.0 0.0 0.0 0.0 0.0 0.0 0.0 0.0 0.0 0.0 0.0 0.0 0.0 0.0 0.0 0.0 0.0 0.0 0.0 0.0 0.0 0.0 0.0 0.0 0.0 0.0 0.0 0.0 0.0 0.0 0.0 0.0 0.0 0.0 0.0 0.0 0.0 0.0 0.0 0.0 0.0 0.0 0.0 0.0 0.0 0.0 0.0 0.0 0.0 0.0 0.0 0.0 0.0 0.0 0.0 0.0 0.0 0.0 0.06943521594684385 0.020598006644518274 0.7395348837209302 0.1372093023255814 0.023920265780730896 0.0069767441860465115 0.0 0.0003322259136212625 0.0003322259136212625 0.0003322259136212625 0.0003322259136212625 0.0003322259136212625 0.0 0.000664451827242525 0.0 0.0 0.0 0.0 0.0 0.0 0.0 0.0 0.0 0.0 0.0 0.0 0.0 0.0 0.0 0.0 0.0 0.0 0.0 0.0 0.0 0.0 0.0 0.0 0.0 0.0 0.0 0.0 0.0 0.0 0.0 0.0 0.0 0.0 0.0 0.0 0.0 0.0 0.0 0.0 0.0 0.0 0.0 0.0 0.0 0.0 0.0 0.0 0.0 0.0 0.0 0.0 0.0 0.0 0.0 0.0 0.0 0.0 0.0 0.0 0.0 0.0 0.0 0.0 0.0 0.0 0.0 0.0 0.0 0.0 0.0 0.0 0.0 0.0 0.0 0.0 0.0 0.0 0.0 0.0 0.0 0.0 0.0 0.0 0.0 0.0 0.0 0.0 0.0 0.0 0.0 0.0 0.0 0.0 0.0 0.0 0.0 0.0 0.0 0.0 0.0 0.0 0.0 0.0 0.0 0.0 0.0 0.0 0.0 0.0 0.0 0.0 0.0 0.0 0.0 0.0 0.0 0.0 0.0 0.0 0.0 0.0 0.0 0.0 0.0 0.0 0.0 0.0 0.0 0.0 0.0 0.0 0.0 0.0 0.0 0.0 0.0 0.0 0.0 0.0 0.0 0.0 0.0 0.0 0.0 0.0 0.0 0.0 0.0 0.0 0.0 0.0 0.0 0.0 0.0 0.0 0.0017154293338416087 0.005622796149814162 0.00066711140760507 0.005718097779472029 0.007624130372629372 0.3163061088344611 0.3523301248451349 0.20051462880015247 0.050986371866958924 0.022205279710283046 0.014295244448680073 0.009053654817497378 0.006194605927761365 0.0035261602973410845 0.0008577146669208044 0.0009530162965786714 0.00028590488897360146 0.0004765081482893357 0.0 0.0001906032593157343 0.0001906032593157343 0.0 9.530162965786715e-05 0.0 9.530162965786715e-05 0.0 9.530162965786715e-05 0.0 0.0 0.0 0.0 0.0 0.0 0.0 0.0 0.0 0.0 0.0 0.0 0.0 0.0 0.0 0.0 0.0 0.0 0.0 0.0 0.0 0.0 0.0 0.0 0.0 0.0 0.0 0.0 0.0 0.0 0.0 0.0 0.0 0.0 0.0 0.0 0.0 0.0 0.0 0.0 0.0 0.0 0.0 0.0 0.0 0.0 0.0 0.0 0.0 0.0 0.0 0.0 0.0 0.0 0.0 0.0 0.0 0.0 0.0 0.0 0.0 0.0 0.0 0.0 0.0 0.0 0.0 0.0 0.0 0.0 0.0 0.0 0.0 0.0 0.0 0.0 0.0 0.0 0.0 0.0 0.0 0.0 0.0 0.0 0.0 0.0 0.0 0.0 0.0 0.0 0.0 0.0 0.0 0.0 0.0 0.0 0.0 0.0 0.0 0.0 0.0 0.0 0.0 0.0 0.0 0.0 0.0 0.0 0.0 0.0 0.0 0.0 0.0 0.0 0.0 0.0 0.0 0.0 0.0 0.0 0.0 0.0 0.0 0.0 0.0 0.0 0.0 0.0 0.0 0.0 0.0 0.0 0.0 0.0 0.0 0.0 0.0 0.0 0.0 0.0 0.0 0.0 0.0 0.0 0.0 0.0 0.0 0.0 0.0 0.0016193560678224423 0.003905505810630596 0.21613640693465422 0.40826824156982283 0.24785673461611735 0.05458182510954467 0.024671365974471327 0.014002667174699944 0.010192417603353019 0.009049342731948943 0.004762811964183654 0.0020956372642408076 0.001143074871404077 0.00028576871785101923 0.0005715374357020385 0.00038102495713469235 9.525623928367309e-05 9.525623928367309e-05 9.525623928367309e-05 0.0 9.525623928367309e-05 0.0 0.0 0.0 0.0 0.0 9.525623928367309e-05 0.0 0.0 0.0 0.0 0.0 0.0 0.0 0.0 0.0 0.0 0.0 0.0 0.0 0.0 0.0 0.0 0.0 0.0 0.0 0.0 0.0 0.0 0.0 0.0 0.0 0.0 0.0 0.0 0.0 0.0 0.0 0.0 0.0 0.0 0.0 0.0 0.0 0.0 0.0 0.0 0.0 0.0 0.0 0.0 0.0 0.0 0.0 0.0 0.0 0.0 0.0 0.0 0.0 0.0 0.0 0.0 0.0 0.0 0.0 0.0 0.0 0.0 0.0 0.0 0.0 0.0 0.0 0.0 0.0 0.0 0.0 0.0 0.0 0.0 0.0 0.0 0.0 0.0 0.0 0.0 0.0 0.0 0.0 0.0 0.0 0.0 0.0 0.0 0.0 0.0 0.0 0.0 0.0 0.0 0.0 0.0 0.0 0.0 0.0 0.0 0.0 0.0 0.0 0.0 0.0 0.0 0.0 0.0 0.0 0.0 0.0 0.0 0.0 0.0 0.0 0.0 0.0 0.0 0.0 0.0 0.0 0.0 0.0 0.0 0.0 0.0 0.0 0.0 0.0 0.0 0.0 0.0 0.0 0.0 0.0 0.0 0.0 0.0 0.0 0.0 0.0 0.0 0.0 0.0 0.00562172463077656 0.0020009528346831827 0.0006669842782277274 0.003144354454502144 0.016674606955693186 0.5294902334444974 0.296141019533111 0.07041448308718437 0.0281086231538828 0.017818008575512148 0.010290614578370653 0.009433063363506432 0.005526441162458313 0.001715102429728442 0.0012386850881372083 0.000857551214864221 0.00028585040495474035 0.00019056693663649358 9.528346831824679e-05 9.528346831824679e-05 0.0 0.0 9.528346831824679e-05 9.528346831824679e-05 0.0 0.0 0.0 0.0 0.0 0.0 0.0 0.0 0.0 0.0 0.0 0.0 0.0 0.0 0.0 0.0 0.0 0.0 0.0 0.0 0.0 0.0 0.0 0.0 0.0 0.0 0.0 0.0 0.0 0.0 0.0 0.0 0.0 0.0 0.0 0.0 0.0 0.0 0.0 0.0 0.0 0.0 0.0 0.0 0.0 0.0 0.0 0.0 0.0 0.0 0.0 0.0 0.0 0.0 0.0 0.0 0.0 0.0 0.0 0.0 0.0 0.0 0.0 0.0 0.0 0.0 0.0 0.0 0.0 0.0 0.0 0.0 0.0 0.0 0.0 0.0 0.0 0.0 0.0 0.0 0.0 0.0 0.0 0.0 0.0 0.0 0.0 0.0 0.0 0.0 0.0 0.0 0.0 0.0 0.0 0.0 0.0 0.0 0.0 0.0 0.0 0.0 0.0 0.0 0.0 0.0 0.0 0.0 0.0 0.0 0.0 0.0 0.0 0.0 0.0 0.0 0.0 0.0 0.0 0.0 0.0 0.0 0.0 0.0 0.0 0.0 0.0 0.0 0.0 0.0 0.0 0.0 0.0 0.0 0.0 0.0 0.0 0.0 0.0 0.0 0.0 0.0 0.0 0.0 0.0 0.0 0.0 0.0 0.0 0.0 0.0 0.0 0.0020964360587002098 0.0008576329331046312 0.5164856108252335 0.27377549075662283 0.09338669716028207 0.03926052982656756 0.022489041356965885 0.012292738707833047 0.015532685344006099 0.012292738707833047 0.005241090146750524 0.00238231370306842 0.0010482180293501049 0.0007623403849818944 0.0006670478368591576 9.52925481227368e-05 0.000476462740613684 0.0002858776443682104 0.000476462740613684 0.0 0.0 9.52925481227368e-05 0.0 0.0 0.0 0.0 0.0 0.0 0.0 0.0 0.0 0.0 0.0 0.0 0.0 0.0 0.0 0.0 0.0 0.0 0.0 0.0 0.0 0.0 0.0 0.0 0.0 0.0 0.0 0.0 0.0 0.0 0.0 0.0 0.0 0.0 0.0 0.0 0.0 0.0 0.0 0.0 0.0 0.0 0.0 0.0 0.0 0.0 0.0 0.0 0.0 0.0 0.0 0.0 0.0 0.0 0.0 0.0 0.0 0.0 0.0 0.0 0.0 0.0 0.0 0.0 0.0 0.0 0.0 0.0 0.0 0.0 0.0 0.0 0.0 0.0 0.0 0.0 0.0 0.0 0.0 0.0 0.0 0.0 0.0 0.0 0.0 0.0 0.0 0.0 0.0 0.0 0.0 0.0 0.0 0.0 0.0 0.0 0.0 0.0 0.0 0.0 0.0 0.0 0.0 0.0 0.0 0.0 0.0 0.0 0.0 0.0 0.0 0.0 0.0 0.0 0.0 0.0 0.0 0.0 0.0 0.0 0.0 0.0 0.0 0.0 0.0 0.0 0.0 0.0 0.0 0.0 0.0 0.0 0.0 0.0 0.0 0.0 0.0 0.0 0.0 0.0 0.0 5.561425949613481e-05 0.00016684277848840444 0.006173182804070964 0.007619153550970469 0.05922918636338357 0.12518769812579947 0.057616372837995665 0.022190089538957788 0.0428229798120238 0.28874923530393193 0.24275624270062843 0.07218730882598298 0.02708414437461765 0.015238307101940938 0.01017740948779267 0.005561425949613481 0.003170012791279684 0.0027250987153106055 0.0018352705633724487 0.0013903564874033702 0.0013903564874033702 0.0011122851899226962 0.0007785996329458874 0.0006117568544574829 0.0006117568544574829 0.0005561425949613481 0.00027807129748067406 0.00016684277848840444 0.00027807129748067406 0.00016684277848840444 0.00022245703798453925 0.00027807129748067406 0.00022245703798453925 0.00011122851899226962 0.00011122851899226962 5.561425949613481e-05 5.561425949613481e-05 0.0 5.561425949613481e-05 0.00011122851899226962 0.00011122851899226962 5.561425949613481e-05 5.561425949613481e-05 0.0 0.0 5.561425949613481e-05 5.561425949613481e-05 0.0 0.0 0.0 0.0 0.0 0.0 0.0 0.0 0.0 5.561425949613481e-05 0.0 0.0 0.0 5.561425949613481e-05 0.0 5.561425949613481e-05 0.0 0.0 0.00011122851899226962 0.0 5.561425949613481e-05 0.0 0.0 0.0 0.0 0.0 0.0 0.0 0.0 5.561425949613481e-05 0.0 0.0 0.0 5.561425949613481e-05 0.0 0.0 0.0 5.561425949613481e-05 0.0 0.0 0.0 0.0 0.0 0.0 0.0 0.0 0.0 0.0 0.0 0.0 0.0 0.0 0.0 0.0 0.0 0.0 0.0 0.0 0.0 0.0 0.0 0.0 0.0 0.0 0.0 0.0 0.0 0.0 0.0 0.0 0.0 0.0 0.0 0.0 0.0 0.0 0.0 0.0 0.0 0.0 0.0 0.0 0.0 0.0 0.0 0.0 0.0 0.0 0.0 0.0 0.0 0.0 0.0 0.0 0.0 0.0 0.0 0.0 0.0 0.0 0.0 0.0 0.0 0.0 0.0 0.0 0.0 0.0 0.0 0.0 0.0 0.0 0.0 0.0 0.0 0.0 0.0 0.0 0.0 0.0 0.0 0.0 0.0 0.0 0.0 5.561425949613481e-05 0.0 0.0 0.0 0.0 0.0345514950166113 0.02026578073089701 0.33986710963455147 0.12890365448504984 0.05681063122923588 0.04186046511627907 0.044850498338870434 0.17242524916943522 0.045514950166112955 0.01727574750830565 0.01727574750830565 0.014617940199335547 0.008637873754152824 0.006312292358803987 0.0049833887043189366 0.004651162790697674 0.003654485049833887 0.002990033222591362 0.002325581395348837 0.0019933554817275745 0.0033222591362126247 0.0016611295681063123 0.0009966777408637873 0.0016611295681063123 0.000664451827242525 0.00132890365448505 0.0009966777408637873 0.0009966777408637873 0.0019933554817275745 0.0009966777408637873 0.0016611295681063123 0.00132890365448505 0.000664451827242525 0.0003322259136212625 0.0009966777408637873 0.000664451827242525 0.0003322259136212625 0.0003322259136212625 0.00132890365448505 0.0003322259136212625 0.000664451827242525 0.000664451827242525 0.0003322259136212625 0.0003322259136212625 0.0 0.0003322259136212625 0.0003322259136212625 0.0 0.000664451827242525 0.0 0.0003322259136212625 0.0 0.0003322259136212625 0.0 0.0 0.0003322259136212625 0.0 0.0 0.0 0.0 0.0 0.0003322259136212625 0.0 0.0003322259136212625 0.0 0.0 0.0 0.0 0.0 0.0 0.0003322259136212625 0.0 0.0 0.0 0.0 0.0003322259136212625 0.0003322259136212625 0.0 0.0 0.0 0.0 0.0 0.0 0.0 0.0 0.0 0.0003322259136212625 0.0 0.0 0.0 0.0003322259136212625 0.0 0.0003322259136212625 0.0 0.0 0.0 0.0 0.0 0.0 0.0 0.0 0.0 0.0 0.0 0.0 0.0 0.0 0.0 0.0 0.0 0.0 0.0 0.0 0.0 0.0 0.0003322259136212625 0.0 0.0 0.0 0.0 0.0 0.0 0.0 0.0 0.0 0.0 0.0 0.0 0.0 0.0 0.0 0.0 0.0 0.0 0.0 0.0003322259136212625 0.0 0.0 0.0 0.0 0.0 0.0 0.0 0.0 0.0 0.0 0.0 0.0 0.0 0.0 0.0 0.0 0.0 0.0 0.0 0.0 0.0 0.0 0.0 0.0 0.0 0.0 0.0 0.0 0.0 0.0 0.0 0.0 0.0 0.0 0.0 0.0 0.0001905850962454736 0.00447874976176863 0.006003430531732418 0.17238421955403088 0.29635982466171146 0.14389174766533258 0.06413188488660186 0.04974271012006861 0.037449971412235564 0.03487707261292167 0.03668763102725367 0.03011244520678483 0.02534781780064799 0.01848675433581094 0.015723270440251572 0.011244520678482943 0.008099866590432629 0.006384600724223366 0.004097579569277683 0.004097579569277683 0.0039069944730322085 0.0037164093767867354 0.0027634838955593673 0.002001143510577473 0.000952925481227368 0.0008576329331046312 0.000952925481227368 0.0003811701924909472 0.000952925481227368 0.0007623403849818944 0.0006670478368591576 0.0002858776443682104 0.000476462740613684 0.0003811701924909472 0.0002858776443682104 0.000476462740613684 0.0002858776443682104 0.0007623403849818944 0.0001905850962454736 0.0002858776443682104 0.0003811701924909472 0.0006670478368591576 0.0001905850962454736 0.0003811701924909472 0.0003811701924909472 0.0001905850962454736 0.0001905850962454736 0.0002858776443682104 0.0001905850962454736 9.52925481227368e-05 9.52925481227368e-05 9.52925481227368e-05 0.0001905850962454736 0.0001905850962454736 9.52925481227368e-05 0.0 9.52925481227368e-05 9.52925481227368e-05 0.0 9.52925481227368e-05 9.52925481227368e-05 9.52925481227368e-05 9.52925481227368e-05 9.52925481227368e-05 0.0 0.0 0.0 0.0001905850962454736 0.0001905850962454736 0.0 0.0 0.0 0.0 9.52925481227368e-05 0.0 0.0002858776443682104 0.0 9.52925481227368e-05 0.0 0.0 9.52925481227368e-05 0.0 0.0001905850962454736 9.52925481227368e-05 0.0002858776443682104 0.0001905850962454736 0.0 9.52925481227368e-05 9.52925481227368e-05 9.52925481227368e-05 0.0 9.52925481227368e-05 0.0 9.52925481227368e-05 0.0 9.52925481227368e-05 0.0 0.0 0.0 0.0 9.52925481227368e-05 0.0001905850962454736 0.0 0.0 0.0 0.0 0.0 0.0 9.52925481227368e-05 0.0001905850962454736 0.0 0.0 0.0 0.0 0.0 0.0 0.0 9.52925481227368e-05 9.52925481227368e-05 0.0 0.0 0.0 9.52925481227368e-05 0.0 0.0 9.52925481227368e-05 0.0 0.0 9.52925481227368e-05 0.0 0.0 0.0 9.52925481227368e-05 9.52925481227368e-05 9.52925481227368e-05 9.52925481227368e-05 0.0 0.0 0.0 0.0 9.52925481227368e-05 0.0 9.52925481227368e-05 9.52925481227368e-05 0.0 0.0 0.0 0.0 0.0 0.0 0.0 0.0 0.0001905850962454736 0.0 0.0 0.0 0.0 0.0 0.0 0.0 9.52925481227368e-05 0.0 0.0 0.0 9.52925481227368e-05 0.0 0.0 9.52925481227368e-05 9.52925481227368e-05 0.0 0.0 0.0 0.0 9.530162965786715e-05 0.012579815114838465 0.019918040598494235 0.04221862193843515 0.2405413132564567 0.14428666730201087 0.0658534260935862 0.038406556752120465 0.10988277899552082 0.06299437720385019 0.04746021156961784 0.03773944534451539 0.028209282378728676 0.01877442104259983 0.019346230820547032 0.01610597541217955 0.01105498904031259 0.009625464595444583 0.008481845039550176 0.007814733631945106 0.004574478223577623 0.004288573334604022 0.003907366815972553 0.0027637472600781474 0.003907366815972553 0.00333555703802535 0.002573144000762413 0.002573144000762413 0.0015248260745258744 0.001810730963499476 0.001238921185552273 0.0011436195558944058 0.0020013342228152103 0.001810730963499476 0.0008577146669208044 0.001238921185552273 0.00133422281521014 0.0003812065186314686 0.0011436195558944058 0.0014295244448680072 0.0014295244448680072 0.0005718097779472029 0.0007624130372629372 0.00066711140760507 0.0003812065186314686 0.0001906032593157343 0.0001906032593157343 0.0005718097779472029 0.00028590488897360146 0.0004765081482893357 0.0003812065186314686 0.0004765081482893357 0.0004765081482893357 0.00028590488897360146 0.0003812065186314686 0.0005718097779472029 0.00028590488897360146 0.0001906032593157343 0.0003812065186314686 0.00028590488897360146 0.0001906032593157343 9.530162965786715e-05 0.00028590488897360146 0.0 0.0 9.530162965786715e-05 9.530162965786715e-05 0.0004765081482893357 0.0001906032593157343 0.0001906032593157343 0.0 0.0001906032593157343 0.0 0.0 9.530162965786715e-05 0.0 0.0 0.00028590488897360146 0.0 0.0 9.530162965786715e-05 9.530162965786715e-05 0.0 9.530162965786715e-05 9.530162965786715e-05 0.00028590488897360146 9.530162965786715e-05 0.0001906032593157343 0.0 0.0 9.530162965786715e-05 0.0 0.0 0.0001906032593157343 0.0003812065186314686 0.0 9.530162965786715e-05 9.530162965786715e-05 9.530162965786715e-05 9.530162965786715e-05 0.0 0.0 0.0 9.530162965786715e-05 0.0 0.0001906032593157343 0.0 0.0 9.530162965786715e-05 0.0 9.530162965786715e-05 0.0 0.0 0.0 9.530162965786715e-05 9.530162965786715e-05 0.0 0.0 0.0 0.0 0.0 0.0 0.0 0.0 0.0 0.0 0.0 0.0 9.530162965786715e-05 0.0 9.530162965786715e-05 0.0 0.0 9.530162965786715e-05 0.0 0.0 0.0 0.0 0.0 0.0 0.0 0.0 0.0 9.530162965786715e-05 0.0 0.0 0.0 0.0 0.0 0.0 0.0 9.530162965786715e-05 0.0 0.0 0.0 0.0 0.0 0.0 0.0 0.0 0.0 0.0 9.530162965786715e-05 9.530162965786715e-05 0.0 0.0 0.0 0.0 0.0 0.0 0.0 0.0 0.0 0.0 0.0028576871785101926 0.0055248618784530384 0.011240236235473423 0.07496666031625071 0.044008382549056965 0.015336254524671366 0.009906648885502 0.24156982282339493 0.32958658792150886 0.1630786816536483 0.03629262716707944 0.010954467517622404 0.006763192989140789 0.0076204991426938465 0.012192798628310155 0.005143836921318346 0.0027624309392265192 0.002286149742808154 0.002286149742808154 0.0009525623928367308 0.0014288435892550963 0.0013335873499714232 0.0010478186321204038 0.0006667936749857116 0.0014288435892550963 0.0006667936749857116 0.0006667936749857116 0.0005715374357020385 0.00038102495713469235 0.0005715374357020385 0.0004762811964183654 0.00019051247856734617 0.0005715374357020385 0.00038102495713469235 0.0004762811964183654 0.00038102495713469235 0.00038102495713469235 9.525623928367309e-05 0.00028576871785101923 0.00028576871785101923 0.00028576871785101923 0.00019051247856734617 0.00019051247856734617 0.00019051247856734617 0.0 9.525623928367309e-05 9.525623928367309e-05 0.0 0.0 9.525623928367309e-05 0.0 9.525623928367309e-05 0.0 0.0 9.525623928367309e-05 0.0 9.525623928367309e-05 0.00019051247856734617 0.0 9.525623928367309e-05 0.0 0.00019051247856734617 9.525623928367309e-05 0.0 0.0 0.0 0.0 0.0 0.0 0.0 0.0 0.0 0.0 0.0 0.0 0.0 0.0 0.0 0.0 9.525623928367309e-05 0.0 0.0 9.525623928367309e-05 0.0 0.0 0.0 0.0 0.0 9.525623928367309e-05 0.0 0.0 0.0 0.0 0.0 0.0 0.0 9.525623928367309e-05 0.0 0.0 0.0 0.0 0.0 0.0 0.0 0.0 0.0 0.0 0.0 0.0 0.0 0.0 0.0 0.0 0.0 0.0 0.0 0.0 0.0 0.0 0.0 0.0 0.0 0.0 0.0 0.0 0.0 0.0 0.0 0.0 0.0 0.0 0.0 0.0 0.0 0.0 0.0 0.0 0.0 0.0 0.0 0.0 0.0 0.0 0.0 0.0 0.0 0.0 0.0 0.0 0.0 0.0 0.0 0.0 0.0 0.0 0.0 0.0 0.0 0.0 0.0 0.0 0.0 0.0 0.0 0.0 0.0 0.0 0.0 0.0 0.0 0.0 0.0 0.0 0.0 0.0005719733079122975 0.0014299332697807435 0.02697807435653003 0.011820781696854146 0.004003813155386082 0.0025738798856053385 0.10371782650142994 0.5546234509056244 0.1688274547187798 0.04213536701620591 0.020495710200190656 0.011439466158245948 0.010200190657769304 0.014394661582459485 0.008198284080076263 0.0038131553860819827 0.0019065776930409914 0.001525262154432793 0.001143946615824595 0.001143946615824595 0.0009532888465204957 0.0005719733079122975 0.0007626310772163965 0.00047664442326024784 0.0005719733079122975 0.0007626310772163965 0.00019065776930409913 0.00047664442326024784 0.00028598665395614874 0.00038131553860819826 0.00019065776930409913 0.00047664442326024784 0.00047664442326024784 9.532888465204957e-05 0.0 0.00019065776930409913 0.00028598665395614874 9.532888465204957e-05 0.00028598665395614874 9.532888465204957e-05 0.00019065776930409913 9.532888465204957e-05 0.0 0.00019065776930409913 0.0 0.0 0.0 0.0 0.0 0.0 0.00019065776930409913 0.00019065776930409913 0.00019065776930409913 0.0 0.0 0.0 0.0 0.0 0.0 0.0 0.0 0.0 0.0 0.0 0.0 0.0 0.0 0.0 0.0 0.0 0.0 9.532888465204957e-05 0.0 9.532888465204957e-05 0.0 0.0 0.0 0.0 0.0 0.0 0.0 9.532888465204957e-05 0.0 0.0 0.0 0.0 0.0 0.0 0.0 0.0 0.0 0.0 0.0 0.0 0.0 0.0 0.0 0.0 0.0 0.0 0.0 0.0 0.0 0.0 9.532888465204957e-05 0.0 0.0 0.0 0.0 0.0 0.0 0.0 0.0 0.0 0.0 0.0 0.0 0.0 0.0 0.0 0.0 0.0 0.0 0.0 0.0 0.0 0.0 0.0 0.0 0.0 0.0 0.0 0.0 0.0 0.0 0.0 0.0 0.0 0.0 0.0 0.0 0.0 0.0 0.0 0.0 0.0 0.0 0.0 0.0 0.0 0.0 0.0 0.0 0.0 0.0 0.0 0.0 0.0 0.0 0.0 0.0 0.0 0.0 0.0 0.0 0.0 0.0 0.0 </TABLE>
    </DEFINITION>
    <DEFINITION>
      <FOR>distance</FOR>
      <GIVEN>fps</GIVEN>
      <GIVEN>transformed</GIVEN>
      <TABLE>0.007828356045230501 0.0 0.0 0.0 0.0 0.0 0.0 0.0 0.0 0.0 0.0 0.0 0.0 0.0 0.0 0.0 0.0 0.0 0.0 0.0 0.0 0.0 0.0 0.0 0.0 0.0 0.0 0.7581907799362134 0.0 0.0 0.0 0.0 0.0 0.0 0.0 0.0 0.0 0.0 0.007828356045230501 0.0 0.0 0.0 0.060887213685126125 0.0 0.0 0.0 0.0 0.0 0.0 0.0 0.0 0.0 0.0 0.0 0.0 0.0 0.0 0.0 0.0 0.0 0.0 0.0 0.0 0.0 0.0 0.0 0.0 0.0 0.0 0.0 0.0 0.0 0.0 0.0 0.0 0.0 0.0 0.0 0.0 0.0 0.0 0.0 0.0 0.0 0.1130762539866628 0.0 0.0 0.0 0.05218904030153668 0.0 0.0 0.0 0.0 0.0 0.0 0.0 0.0 0.0 0.0 0.0 0.0 0.007972627312892402 0.007972627312892402 0.01192572168886822 0.007972627312892402 0.007972627312892402 0.013952097797561704 0.015878816064844037 0.015945254625784805 0.019931568282231006 0.01790519217353752 0.033883666079792714 0.027870976314653025 0.025877819486429924 0.02989735242334651 0.03587682290801581 0.04584260704913132 0.03584360362754543 0.05374879580108295 0.05381523436202372 0.029864133142876125 0.04584260704913132 0.021924725110454107 0.025877819486429924 0.015945254625784805 0.029864133142876125 0.029864133142876125 0.025877819486429924 0.019898349001760622 0.033883666079792714 0.02790419559512341 0.033883666079792714 0.025877819486429924 0.011958940969338604 0.01391887851709132 0.009965784141115503 0.015945254625784805 0.0019931568282231006 0.003986313656446201 0.0019931568282231006 0.0019931568282231006 0.005979470484669302 0.0019931568282231006 0.003986313656446201 0.005979470484669302 0.003986313656446201 0.011958940969338604 0.003986313656446201 0.0019931568282231006 0.003986313656446201 0.0019931568282231006 0.0 0.0 0.005979470484669302 0.0019931568282231006 0.0 0.003986313656446201 0.0019931568282231006 0.0 0.0019931568282231006 0.0 0.0 0.0 0.0 0.003986313656446201 0.0019931568282231006 0.0 0.0019931568282231006 0.0019931568282231006 0.003986313656446201 0.0019931568282231006 0.005979470484669302 0.0019931568282231006 0.0 0.0 0.003986313656446201 0.0 0.0 0.0 0.0 0.003986313656446201 0.0 0.0 0.003986313656446201 0.0 0.0 0.0 0.003986313656446201 0.0 0.0 0.0 0.0 0.0 0.0 0.0 0.0 0.0 0.0 0.0 0.0 0.0 0.0 0.0 0.0 0.0 0.003117045041300847 0.0 0.0 0.0 0.0 0.0 0.0 0.0 0.0 0.0 0.0 0.0 0.0 0.0 0.0 0.0 0.0 0.0 0.0 0.003117045041300847 0.034287495454309314 0.0 0.0 0.003117045041300847 0.0 0.0 0.0 0.0 0.0 0.0 0.0 0.0 0.0 0.0 0.0 0.0 0.003117045041300847 0.0 0.0 0.0 0.0 0.0 0.0 0.0 0.0 0.0 0.0 0.0 0.0 0.0 0.0 0.0 0.0 0.0 0.0 0.0 0.0 0.003117045041300847 0.0 0.0 0.0 0.0 0.0 0.0 0.0 0.0 0.0 0.0 0.35820042599615565 0.0 0.0 0.0 0.0 0.0 0.0 0.0 0.0 0.0 0.0 0.043430827575458464 0.0 0.0 0.0 0.0 0.0 0.4799210348589537 0.0 0.06857499090861863 0.0 0.0 0.0 0.0 0.0 0.0015372002459520394 0.012297601967616315 0.015372002459520393 0.01844640295142447 0.021520803443328552 0.021520803443328552 0.021520803443328552 0.03225558516089363 0.016909202705472432 0.047576347612215616 0.04913916786226686 0.04609038737446198 0.04762758762041402 0.027643984423037508 0.04150440664070506 0.04603914736626358 0.03689280590284894 0.04765320762451322 0.058413609346177495 0.04452756712441074 0.04145316663250666 0.0506763681082189 0.04452756712441074 0.02456958393113343 0.006097560975609756 0.02146956343513015 0.010760401721664276 0.015346382455421193 0.004611600737856118 0.016909202705472432 0.012297601967616315 0.006148800983808158 0.003074400491904079 0.007686001229760197 0.0015372002459520394 0.004611600737856118 0.0 0.0 0.0 0.0 0.0 0.0 0.003074400491904079 0.009223201475712236 0.003074400491904079 0.003074400491904079 0.004611600737856118 0.0 0.0 0.0 0.0 0.007686001229760197 0.007686001229760197 0.003074400491904079 0.0 0.0015372002459520394 0.004611600737856118 0.0015372002459520394 0.003074400491904079 0.0 0.0015372002459520394 0.0015372002459520394 0.0 0.0015372002459520394 0.0 0.0 0.0015372002459520394 0.0 0.0 0.0 0.0 0.0 0.0 0.0 0.003074400491904079 0.0 0.0 0.0 0.0 0.0 0.0 0.0 0.0 0.0 0.0 0.003074400491904079 0.0 0.0 0.0 0.0 0.003048780487804878 0.003048780487804878 0.0 0.003074400491904079 0.0 0.0 0.0 0.0 0.0 0.0 0.0 0.0 0.0 0.0 0.0 0.0 0.0 0.0024882843279558746 0.0024882843279558746 0.004976568655911749 0.0 0.0 0.0 0.0 0.0 0.0 0.0 0.0 0.0 0.0 0.0 0.0 0.0 0.0 0.0 0.0 0.007464852983867623 0.0 0.0 0.0024882843279558746 0.0024882843279558746 0.0 0.0024882843279558746 0.0 0.0 0.0 0.0 0.0 0.0 0.0 0.0 0.0 0.0 0.0 0.0 0.0 0.0 0.0 0.0 0.0 0.0 0.0 0.0 0.0 0.0 0.0 0.0 0.0 0.0 0.0 0.0 0.0 0.0 0.0 0.0 0.0 0.0 0.0 0.0 0.0 0.0 0.0 0.0 0.009953137311823498 0.0 0.0 0.0 0.0 0.0 0.0 0.0 0.15925019698917597 0.0 0.0 0.0 0.0 0.0 0.0 0.0 0.0 0.0 0.4825612740015759 0.32335254841786587 0.0 0.0 0.0 0.0 0.002469999794166684 0.00368441635963197 0.01852499845625013 0.01975999835333347 0.01852499845625013 0.030854414095465493 0.033344997221250235 0.055574995368750386 0.06664882777926436 0.06541382788218102 0.06417882798509766 0.06172941152254904 0.05927999506000041 0.05304324557972954 0.03951999670666694 0.03332441388963218 0.029639997530000205 0.029639997530000205 0.022229998147500155 0.04073441327213223 0.040693246608896116 0.03704999691250026 0.02593499783875018 0.016054998662083445 0.007409999382500051 0.004939999588333368 0.01358499886791676 0.00617499948541671 0.01234999897083342 0.004939999588333368 0.007409999382500051 0.01234999897083342 0.008644999279583393 0.0037049996912500256 0.00617499948541671 0.001234999897083342 0.0 0.001234999897083342 0.0 0.0 0.0 0.0 0.0 0.0 0.0 0.002469999794166684 0.0 0.002469999794166684 0.001234999897083342 0.002469999794166684 0.0 0.001234999897083342 0.00617499948541671 0.0037049996912500256 0.004939999588333368 0.001234999897083342 0.001234999897083342 0.001234999897083342 0.001234999897083342 0.0 0.001234999897083342 0.0 0.0 0.001234999897083342 0.0 0.0 0.0 0.0 0.0 0.0 0.0 0.0 0.0 0.0 0.0 0.0 0.0 0.0 0.0 0.0 0.0 0.0 0.0 0.002469999794166684 0.0 0.0 0.0 0.002469999794166684 0.0 0.0 0.0 0.0 0.0 0.002469999794166684 0.002469999794166684 0.0 0.0 0.0 0.0 0.007724244472337549 0.0 0.0 0.0 0.0 0.0 0.0 0.0019310611180843873 0.0 0.0019310611180843873 0.0 0.0 0.0 0.0 0.0 0.0 0.0 0.0 0.0038621222361687746 0.0 0.0 0.0 0.0 0.0019310611180843873 0.0 0.0038621222361687746 0.0 0.0 0.0019310611180843873 0.1629815583663223 0.0 0.0 0.0 0.0 0.0 0.0 0.0 0.0 0.0 0.0 0.0 0.0 0.0 0.0 0.0 0.0 0.0 0.0 0.0 0.0 0.0 0.0 0.0 0.0 0.0 0.0 0.0 0.0 0.0 0.0 0.0 0.0 0.0 0.0 0.0 0.0 0.0 0.0 0.007724244472337549 0.0 0.0 0.0 0.0 0.0 0.0 0.0 0.0 0.0 0.0 0.0 0.0 0.0 0.18914743651636573 0.0 0.0 0.0 0.0 0.0 0.0 0.0 0.0 0.0 0.019310611180843873 0.0 0.006951820025103795 0.424736892922661 0.16597470309935308 0.0 0.0 0.0028311680140929254 0.0028311680140929254 0.015996099279625028 0.034902010129290006 0.025480512126836326 0.06602912957312278 0.04433923684293309 0.06981974896976942 0.09058164773978421 0.09998741703104848 0.0924061782377552 0.08963792506841989 0.06698858095567649 0.05473591493912989 0.030199125483657868 0.021705621441379094 0.016971279373368148 0.014155840070464627 0.016971279373368148 0.012268394727736009 0.013212117399100318 0.008493504042278775 0.0037748906854572334 0.006590329988360753 0.007549781370914467 0.006606058699550159 0.012268394727736009 0.0037748906854572334 0.009437226713643084 0.005662336028185851 0.006606058699550159 0.004718613356821542 0.006606058699550159 0.0037748906854572334 0.005662336028185851 0.0018874453427286167 0.0 0.0 0.0 0.0 0.0 0.0 0.0 0.0009437226713643084 0.0028311680140929254 0.0028311680140929254 0.0018874453427286167 0.0009437226713643084 0.0 0.0 0.0 0.0 0.0 0.0009437226713643084 0.0018874453427286167 0.0 0.0 0.0009437226713643084 0.0 0.0 0.0 0.0 0.0 0.0 0.0 0.0 0.0 0.0 0.0018874453427286167 0.0 0.0 0.0 0.0 0.0 0.0 0.0 0.0 0.0 0.0 0.0 0.0 0.0 0.0018874453427286167 0.0 0.0 0.0018874453427286167 0.0 0.0 0.0 0.0 0.0 0.0 0.0018874453427286167 0.0 0.0 0.0018874453427286167 0.0018874453427286167 0.0 0.0 0.05656375206222013 0.0 0.0 0.0069526278576478905 0.003535234503888758 0.014140938015555032 0.0 0.01408201744049022 0.007070469007777516 0.1696912561866604 0.007070469007777516 0.007070469007777516 0.003535234503888758 0.010605703511666275 0.003535234503888758 0.0 0.0 0.0424228140466651 0.0 0.02121140702333255 0.0 0.0 0.0424228140466651 0.003535234503888758 0.2472307329719538 0.003535234503888758 0.08832194202215414 0.0 0.01767617251944379 0.007070469007777516 0.0 0.003535234503888758 0.0 0.0 0.014140938015555032 0.0 0.0 0.0 0.0 0.003535234503888758 0.05302851755833137 0.0 0.0 0.0 0.0 0.0 0.0 0.0 0.0 0.0 0.0 0.0 0.0 0.007070469007777516 0.0 0.0 0.0 0.007070469007777516 0.01767617251944379 0.0 0.0 0.007070469007777516 0.0 0.0 0.0 0.0 0.003535234503888758 0.0 0.0 0.0 0.0 0.0 0.0 0.0 0.003535234503888758 0.0 0.0 0.007070469007777516 0.010605703511666275 0.007070469007777516 0.0 0.0 0.0 0.0 0.0 0.0 0.0 0.0 0.0 0.07070469007777516 0.007070469007777516 0.0 0.0 0.0 0.0 0.0 0.0 0.0 0.0 0.00722519622976124 0.005254688167099084 0.019048244605734177 0.03348768979824187 0.02890078491904496 0.05646600326228557 0.062399421984301616 0.07355468707237238 0.09653300053641609 0.11032655697505118 0.10438219098602033 0.08928590977262527 0.08077988330213362 0.05516327848752559 0.030849398447677537 0.01901540280468981 0.013136720417747709 0.015107228480409865 0.007871084983633836 0.009173809758393816 0.005911524187986469 0.0032732328374221378 0.003941016125324313 0.0032841801044369272 0.002627344083549542 0.0045978521462116985 0.007214248962746451 0.003941016125324313 0.00588962965395689 0.005254688167099084 0.0019705080626621564 0.005911524187986469 0.005911524187986469 0.0032841801044369272 0.0019705080626621564 0.0 0.0 0.0 0.001313672041774771 0.0006568360208873855 0.0019705080626621564 0.0 0.0006568360208873855 0.0 0.0 0.0 0.0 0.0 0.0 0.0 0.0 0.0 0.0 0.0019705080626621564 0.001313672041774771 0.0 0.0 0.001313672041774771 0.0006458887538725957 0.0 0.0 0.0006568360208873855 0.0 0.0 0.0 0.0 0.0006568360208873855 0.0 0.0 0.0 0.0 0.0 0.0 0.0 0.0006568360208873855 0.0 0.0 0.0006568360208873855 0.0006568360208873855 0.0006568360208873855 0.0006568360208873855 0.0 0.0 0.0 0.0 0.0 0.0 0.0 0.0 0.0006568360208873855 0.0006568360208873855 0.0 0.0 0.0 0.0 0.0 0.0 0.0006568360208873855 0.0006458887538725957 </TABLE>
    </DEFINITION>
    <DEFINITION>
      <FOR>distance_SLO</FOR>
      <GIVEN>distance</GIVEN>
      <TABLE>0.0 1.0 0.0 1.0 0.0 1.0 0.0 1.0 0.0 1.0 0.0 1.0 0.0 1.0 0.0 1.0 0.0 1.0 0.0 1.0 0.0 1.0 0.0 1.0 0.0 1.0 0.0 1.0 0.0 1.0 0.0 1.0 0.0 1.0 0.0 1.0 0.0 1.0 0.0 1.0 0.0 1.0 0.0 1.0 0.0 1.0 0.0 1.0 0.0 1.0 0.0 1.0 1.0 0.0 1.0 0.0 1.0 0.0 1.0 0.0 1.0 0.0 1.0 0.0 1.0 0.0 1.0 0.0 1.0 0.0 1.0 0.0 1.0 0.0 1.0 0.0 1.0 0.0 1.0 0.0 1.0 0.0 1.0 0.0 1.0 0.0 1.0 0.0 1.0 0.0 1.0 0.0 1.0 0.0 1.0 0.0 1.0 0.0 1.0 0.0 1.0 0.0 1.0 0.0 1.0 0.0 1.0 0.0 1.0 0.0 1.0 0.0 1.0 0.0 1.0 0.0 1.0 0.0 1.0 0.0 1.0 0.0 1.0 0.0 1.0 0.0 1.0 0.0 1.0 0.0 1.0 0.0 1.0 0.0 1.0 0.0 1.0 0.0 1.0 0.0 1.0 0.0 1.0 0.0 1.0 0.0 1.0 0.0 1.0 0.0 1.0 0.0 1.0 0.0 1.0 0.0 1.0 0.0 1.0 0.0 1.0 0.0 1.0 0.0 1.0 0.0 1.0 0.0 1.0 0.0 1.0 0.0 1.0 0.0 1.0 0.0 1.0 0.0 1.0 0.0 1.0 0.0 1.0 0.0 1.0 0.0 1.0 0.0 1.0 0.0 1.0 0.0 1.0 0.0 1.0 0.0 1.0 0.0 </TABLE>
    </DEFINITION>
    <DEFINITION>
